  0.25264960527420044 0.26731735467910767 0.18480688333511353 -0.23842762410640717 0.2980394959449768 -0.18439845740795135 0.37419256567955017 0.2515214681625366 -0.22106358408927917 -0.4175706207752228 0.1109698936343193 -0.11137193441390991 0.08771312981843948 0.13079997897148132 0.015481372363865376 0.08092407137155533 0.15873213112354279 0.013003770262002945 -0.3303309977054596 -0.007753520738333464 0.18478620052337646 0.1452355682849884 0.4274807572364807 -0.036653757095336914 0.14242294430732727 -0.0832778811454773 -0.05180872976779938 0.14392758905887604 0.0818355605006218 -0.2599630653858185 -0.12141530215740204 0.052720002830028534 0.2924436628818512 0.11228860914707184 -0.13542883098125458 0.014631383121013641 -0.0006500105955637991 0.04262988641858101 0.1566544622182846 -0.006362443789839745 0.21948306262493134 0.10838276892900467 -0.064596027135849 0.22492654621601105 0.3227555453777313 -0.011742171831429005 -0.30215170979499817 0.4130483567714691 0.2589334547519684 0.495758056640625 
하 0.3044546842575073 0.25716859102249146 0.11101049929857254 0.031009435653686523 0.24381934106349945 -0.17598141729831696 0.47689294815063477 0.24522903561592102 -0.17283546924591064 -0.08728650212287903 0.24667589366436005 -0.1301337629556656 0.28922656178474426 -0.0883454754948616 0.20465601980686188 0.2398047298192978 0.29619404673576355 0.01750120334327221 -0.10829336196184158 -0.09970299899578094 0.2578987181186676 0.32649320363998413 0.29123449325561523 -0.11060523986816406 0.3807985484600067 -0.08271587640047073 0.2669937312602997 0.13258719444274902 -0.12335193157196045 -0.2747771441936493 -0.2807653248310089 0.26504814624786377 0.09615444391965866 0.06552370637655258 -0.1442221850156784 -0.0248599573969841 0.35335731506347656 0.20322078466415405 0.1992725133895874 0.30447718501091003 0.19079194962978363 -0.04147696867585182 -0.09027742594480515 -0.13465005159378052 0.5029057860374451 0.1603006273508072 -0.4132620096206665 0.038763195276260376 0.21895268559455872 0.3237532079219818 
품 -0.2918073534965515 0.6462979912757874 0.1322377324104309 0.02372448705136776 0.10886361449956894 -0.6022490859031677 0.15895745158195496 0.25956544280052185 -0.783275842666626 -0.3342318534851074 0.1864193081855774 -0.25018030405044556 0.2516535222530365 -0.03822235390543938 0.27476373314857483 0.12800952792167664 0.1580425500869751 0.20692673325538635 -0.756065845489502 -0.17218203842639923 0.0614672489464283 0.02838343381881714 0.4472711980342865 -0.4468677341938019 -0.12496413290500641 -0.27702805399894714 -0.0017238793661817908 0.2698192596435547 -0.06930629909038544 0.257979154586792 0.2252507358789444 0.05334964022040367 0.03658650442957878 0.08426219969987869 0.40988633036613464 0.11345202475786209 0.19076526165008545 0.31985896825790405 0.5418727397918701 0.2621022164821625 0.18057020008563995 0.18112139403820038 -0.4889661967754364 0.08843401819467545 0.6138668656349182 0.24187515676021576 0.4148077368736267 0.26092952489852905 0.5042861700057983 -0.12627598643302917 
어 0.11729267984628677 0.12472033500671387 -0.042616106569767 -0.026754071936011314 0.1343010812997818 -0.07592365145683289 0.4794062674045563 -0.058455970138311386 -0.33497127890586853 0.3422529399394989 0.2544173002243042 -0.4492294490337372 0.12936607003211975 -0.13643838465213776 0.28918594121932983 0.5030918121337891 0.6895028352737427 -0.1371781826019287 0.019508888944983482 -0.0697096437215805 0.38231274485588074 0.11853998899459839 0.9688180088996887 -0.10354021191596985 0.5561475157737732 -0.34605103731155396 -0.047000668942928314 0.07112403213977814 0.21906356513500214 -0.5650239586830139 -0.6896824836730957 0.09067229181528091 0.0470024049282074 0.005336979404091835 -0.19901780784130096 -0.05465374141931534 -0.21466229856014252 -0.18340277671813965 0.2735811173915863 0.3427065312862396 0.47681567072868347 0.03886092081665993 -0.11667776107788086 -0.23223735392093658 0.35787123441696167 0.28553661704063416 -0.30432286858558655 0.2733616232872009 0.22810132801532745 0.2618763744831085 
인 -0.02207404002547264 0.23238226771354675 -0.18200606107711792 -0.09051024168729782 0.4834180772304535 -0.09139200299978256 0.2190680205821991 0.49098435044288635 -0.24378670752048492 0.061850059777498245 0.24633276462554932 -0.3792482316493988 0.4276449382305145 0.0021499651484191418 0.08708098530769348 0.24280618131160736 0.8184201717376709 0.40151000022888184 -0.4439901113510132 -0.13117392361164093 0.18897947669029236 0.33299657702445984 0.21850800514221191 -0.5713122487068176 0.42067116498947144 -0.02044939063489437 0.1212538480758667 0.3908746838569641 0.060765206813812256 -0.568307638168335 -0.2611983120441437 -0.2607855200767517 -0.11225689947605133 0.1181783676147461 -0.3056294322013855 -0.41090700030326843 -0.46121469140052795 -0.1910925805568695 0.2689802050590515 -0.05488206446170807 0.22942405939102173 0.4933467209339142 0.06810562312602997 0.1881098747253418 0.12266146391630173 0.06541436910629272 -0.4717840850353241 0.3877025246620178 -0.17961686849594116 0.11812027543783188 
확 0.12285052984952927 0.11196574568748474 -0.3524288237094879 -0.03638184070587158 -0.18119995296001434 -0.4078284800052643 0.4529743492603302 0.19762487709522247 -0.49772995710372925 -0.07886750251054764 0.5175301432609558 -0.26023513078689575 0.08133284747600555 0.31080833077430725 0.06463351845741272 0.5044113397598267 0.3971943259239197 -0.07104532420635223 -0.3035214841365814 0.02242233417928219 0.38117092847824097 0.48343759775161743 0.4254192113876343 -0.06784188002347946 0.01871059089899063 0.29796698689460754 0.26565277576446533 0.3443421423435211 0.04035969823598862 -0.4170094430446625 -0.6580106019973755 -0.35348227620124817 0.15242858231067657 0.3468138575553894 0.043561287224292755 -0.36676427721977234 -0.4820054769515991 -0.27270257472991943 0.7157478928565979 -0.02752576768398285 -0.05086720362305641 0.3723033666610718 0.45235130190849304 -0.20958343148231506 0.05832413211464882 0.3177034854888916 -0.629270076751709 0.35734105110168457 -0.013437153771519661 0.0027303907554596663 
떻 0.030864009633660316 0.3747013807296753 -0.10987527668476105 -0.039975520223379135 0.13818512856960297 -0.4031178057193756 0.4749391973018646 0.47878792881965637 0.0433560274541378 -0.6954306960105896 0.42115700244903564 -0.2278345674276352 0.22730746865272522 0.25673824548721313 0.5484358668327332 0.37602755427360535 0.39958181977272034 -0.3426520526409149 0.03058365359902382 0.22907257080078125 0.5662562847137451 0.08696560561656952 0.600199818611145 0.21341431140899658 0.22834181785583496 -0.010416282340884209 0.06879135221242905 0.5987929105758667 0.10463643819093704 -0.4674374461174011 -0.10802353918552399 0.021342147141695023 -0.5551608204841614 -0.25472500920295715 -0.040829550474882126 0.09190003573894501 0.37891149520874023 -0.027089187875390053 -0.34828436374664307 0.5947747230529785 0.3540293574333191 0.1663786768913269 0.15636533498764038 -0.16627812385559082 0.4689820110797882 0.2969433665275574 -0.18632276356220245 -0.013525117188692093 -0.007227560505270958 0.12178517132997513 
제 0.09621835500001907 0.16988199949264526 -0.18491125106811523 -0.38347145915031433 0.30101364850997925 -0.3820090591907501 0.4042065143585205 0.7460924386978149 -0.22438561916351318 -0.538770854473114 0.16631853580474854 0.1431342214345932 0.43773648142814636 -0.4719100892543793 0.5709561109542847 -0.36796385049819946 -0.16503091156482697 0.2884948253631592 -0.7515119314193726 -0.703479528427124 0.39745083451271057 -0.12829139828681946 0.14987918734550476 0.1693357676267624 -0.20153318345546722 -0.24771133065223694 0.007455046288669109 0.03400983288884163 -0.28406503796577454 0.2648746967315674 -0.09608590602874756 0.6283106803894043 0.03921075537800789 0.25293633341789246 0.2766701579093933 0.05866708979010582 0.17534296214580536 0.25949332118034363 0.6624986529350281 0.0893646627664566 -0.2389770746231079 -0.16737711429595947 -0.0716085210442543 0.061181772500276566 0.8144253492355347 -0.19581526517868042 -0.16338087618350983 0.07852102816104889 0.37518730759620667 -0.4555881917476654 
있 -0.07111658155918121 0.2861897349357605 0.05749833956360817 -0.05176379159092903 0.18284177780151367 -0.29851970076560974 0.3042925298213959 0.38184574246406555 -0.14172297716140747 -0.2501120865345001 0.2303408980369568 -0.32444077730178833 -0.013633734546601772 -0.028322890400886536 -0.12666110694408417 -0.1682703047990799 0.013184207491576672 0.32326948642730713 -0.28819024562835693 -0.15077996253967285 0.19333384931087494 -0.044013626873493195 0.5065022706985474 -0.2385305017232895 0.16989834606647491 -0.207168847322464 0.051382992416620255 0.3063807189464569 -0.14038817584514618 0.10832618176937103 -0.6185493469238281 -0.03137858211994171 0.025884291157126427 0.12010949105024338 -0.08552369475364685 -0.05194571986794472 0.17349274456501007 0.16865482926368713 0.06803112477064133 0.11707239598035812 0.011852679774165154 0.002630525501444936 -0.12216829508543015 0.04081626608967781 0.4708940088748932 -0.025372100993990898 -0.47768348455429077 0.3252426087856293 0.1873212456703186 0.1635930836200714 
반 -0.40657076239585876 0.10450301319360733 0.434757262468338 0.07403906434774399 -0.11350030452013016 -0.7630064487457275 -0.16509667038917542 -0.4589992165565491 -0.810395359992981 -0.26442649960517883 0.12954063713550568 -0.32228758931159973 0.22368450462818146 -0.2342628538608551 -0.1850152313709259 0.18097011744976044 0.30658483505249023 0.8445773720741272 -0.7487977743148804 -0.22892524302005768 0.4678153693675995 0.5775743722915649 0.5292657613754272 0.21976454555988312 -0.4104121923446655 0.04505426809191704 0.4102851152420044 0.19844070076942444 0.3257349133491516 -0.696708083152771 -0.20272241532802582 -0.5898955464363098 0.15871454775333405 0.34292808175086975 0.07799604535102844 -0.44223517179489136 0.22091571986675262 0.5981490015983582 -0.20003142952919006 -0.17922157049179077 0.3535679578781128 0.16547179222106934 0.01830185577273369 0.16375026106834412 0.5466150045394897 -0.2594159245491028 0.40456071496009827 -0.09010802954435349 0.9531129598617554 0.25934919714927673 
주 -0.16431297361850739 -0.04322948306798935 0.04262560233473778 -0.11334430426359177 -0.4283002018928528 -0.32143211364746094 0.6060816049575806 0.6062270998954773 -0.3559201955795288 -0.4018577039241791 0.006964703090488911 -0.3463817238807678 -0.056393157690763474 -0.2471463531255722 -0.4461038112640381 -0.06412096321582794 0.43340444564819336 -0.06181048974394798 -0.45624732971191406 -0.21083039045333862 0.21285699307918549 0.1409713476896286 0.5608996152877808 0.3280506432056427 -0.1324291229248047 -0.043519485741853714 0.06861820071935654 -0.253297358751297 -0.18211200833320618 0.3367047905921936 -0.12296789884567261 -0.0281115360558033 0.1477365344762802 -0.372921884059906 -0.19864164292812347 0.5112729072570801 0.19704613089561462 0.3489011228084564 0.07135053724050522 -0.38482731580734253 0.42272618412971497 -0.21064375340938568 -0.2062956988811493 -0.4465404152870178 -0.10152923315763474 -0.3140880763530731 -0.23387832939624786 0.5095343589782715 0.012410244904458523 0.3834015727043152 
환 -0.05781368166208267 -0.21235424280166626 0.35095322132110596 0.3385750949382782 -0.45734846591949463 -0.30755341053009033 0.24134916067123413 -0.5136874318122864 -0.4895011782646179 -0.17730315029621124 0.5067915916442871 -0.02846616692841053 0.3043796420097351 -0.351805180311203 0.2863959074020386 0.5546033382415771 0.6220677495002747 0.31795254349708557 -0.8594842553138733 -0.31497079133987427 0.22115285694599152 0.5121812224388123 0.6557782292366028 0.3081285357475281 -0.019724657759070396 0.5018779635429382 0.4391673803329468 -0.02178473025560379 -0.053014662116765976 -0.19679085910320282 -0.039300963282585144 -0.44375982880592346 0.28724798560142517 -0.5483675003051758 -0.18129949271678925 -0.39727574586868286 0.34480488300323486 0.3378113806247711 -0.09351525455713272 0.18941503763198853 0.49650612473487854 0.6804730296134949 -0.5150822997093201 -0.08436859399080276 0.9094525575637817 0.5455451011657715 0.2764798104763031 -0.362702876329422 0.2749040126800537 -0.16079552471637726 
번 -0.2720333933830261 -0.5373558402061462 -0.38764488697052 0.03687407448887825 0.17970490455627441 0.15931840240955353 0.5773558616638184 -0.04609617590904236 -0.25470083951950073 -0.1718849539756775 0.30245688557624817 -0.46773627400398254 -0.6061339378356934 0.5883091688156128 -0.017894521355628967 0.3989830017089844 0.28276002407073975 0.4333093762397766 -0.27434152364730835 -0.7043565511703491 0.6737916469573975 0.23867034912109375 1.0293527841567993 -0.2780534625053406 0.6652692556381226 0.39408645033836365 0.31147265434265137 -0.07922837883234024 -0.18601493537425995 -0.40769076347351074 0.3185092508792877 0.19303500652313232 -0.04270552098751068 0.3775056004524231 -0.38953113555908203 -0.505047619342804 -0.8282979726791382 -0.49715355038642883 -0.22046107053756714 -0.5070692896842957 0.15039169788360596 -0.13124941289424896 0.2727695405483246 -0.02464178390800953 0.08240293711423874 0.43463173508644104 -0.9317705631256104 -0.524248480796814 -0.16855205595493317 0.13679562509059906 
디 -0.35142603516578674 -0.29173460602760315 -0.1373598575592041 0.44247210025787354 -0.031645745038986206 -0.6878218650817871 0.4680940806865692 -0.4684954881668091 -0.18495656549930573 -0.19021470844745636 0.6159337162971497 -0.4366566836833954 -0.016401205211877823 -0.037891533225774765 0.23975956439971924 0.3743351995944977 0.14837943017482758 0.6118903756141663 -0.8925039172172546 -0.10736380517482758 -0.07275382429361343 0.5684255957603455 0.8244657516479492 0.17907953262329102 0.6200249195098877 -0.1524532288312912 0.2512030005455017 0.8475285172462463 -0.08082056045532227 -0.16675235331058502 0.003009004518389702 -0.2740333676338196 -0.43998029828071594 0.2978857457637787 0.07228047400712967 -0.3276270031929016 0.3554539382457733 -0.6217268705368042 -0.4868275225162506 0.017352277413010597 0.22177249193191528 0.565143346786499 -0.07966717332601547 -0.1091693788766861 0.26128366589546204 0.38677623867988586 -0.3804893493652344 -0.0650414228439331 -0.050916578620672226 0.3504713177680969 
회 0.40471693873405457 0.2710587978363037 0.21176564693450928 0.5647289156913757 -0.39327770471572876 0.1753825545310974 0.40655604004859924 -0.47454798221588135 -0.8033736944198608 0.32132166624069214 0.6216087341308594 0.2314581722021103 0.3537456691265106 0.280701220035553 0.4603192210197449 0.2313121259212494 0.7861061692237854 0.3646867275238037 -0.8390041589736938 -0.4517914950847626 -0.02682013437151909 -0.10144176334142685 0.44425344467163086 -0.3646286725997925 -0.47551429271698 0.018620233982801437 0.2655408978462219 0.881955087184906 -0.31955695152282715 0.3176308274269104 -0.09191916882991791 0.0863359272480011 0.11591661721467972 -0.6374620199203491 -0.06483089178800583 -0.4399036765098572 0.4154909551143646 -0.043958213180303574 -0.3701316714286804 -0.28445249795913696 0.28560855984687805 -0.14953267574310303 0.11885582655668259 -0.047591499984264374 0.5204809308052063 -0.3953225612640381 -0.9109979271888733 -0.23538747429847717 0.6394850015640259 0.26806315779685974 
교 -0.36265087127685547 -0.04766400530934334 0.5379706621170044 0.0046190437860786915 -0.607844352722168 0.12113775312900543 -0.2668423652648926 -0.04294021055102348 -0.20531713962554932 0.018316082656383514 0.6118133664131165 0.08731397241353989 0.2604973316192627 0.4622405171394348 0.3232825994491577 0.7441789507865906 0.39334866404533386 0.9468260407447815 -0.7317403554916382 -0.43327686190605164 0.556583046913147 0.2797321677207947 0.647603452205658 -0.04849773272871971 -0.03165287524461746 0.5710455179214478 0.7503739595413208 -0.03026398830115795 0.16122567653656006 -0.49772530794143677 -0.3139980435371399 -0.3557531535625458 -0.2329898327589035 -0.2679038643836975 -0.1772347241640091 -0.2621106505393982 0.8136151432991028 0.4963591992855072 0.20547300577163696 0.3325909376144409 0.3151295483112335 0.015494657680392265 -0.2948075830936432 0.32012975215911865 0.81849205493927 -0.1459863781929016 0.21578402817249298 -0.0973895788192749 0.7501814365386963 0.07148917019367218 
일 -0.2033384144306183 0.5823408365249634 0.2954684793949127 0.3729025423526764 -0.05994327366352081 -0.2241775393486023 0.4798002541065216 0.25356242060661316 -0.690990686416626 -0.31704390048980713 0.25431129336357117 -0.755392849445343 0.3269185423851013 0.448075532913208 1.5347689390182495 -0.11920709908008575 -0.05124537646770477 0.2934550344944 -0.35243359208106995 -0.6231258511543274 0.39724916219711304 0.33769455552101135 0.2463553100824356 -0.3237919211387634 0.5245153307914734 0.5603624582290649 -0.390511691570282 -0.288881778717041 0.4673084020614624 -0.07008609175682068 0.6713104844093323 -0.059114009141922 0.5371113419532776 0.02382284589111805 0.19551965594291687 -0.3682273030281067 -0.04018435254693031 0.5799686908721924 0.3772253394126892 0.029292641207575798 -0.1001177430152893 -0.044139936566352844 0.5349672436714172 -0.2791704833507538 -0.22148087620735168 -0.7806445360183716 -0.2524822950363159 0.40763258934020996 -0.10848020017147064 -0.07853242009878159 
가 -0.21350260078907013 0.19590097665786743 0.36480623483657837 -0.013109711930155754 0.19409364461898804 0.3193266689777374 0.4412439167499542 0.3645181357860565 -0.11812768131494522 -0.19917011260986328 0.1942373514175415 -0.4656045436859131 0.45192745327949524 -0.13592958450317383 -0.23477065563201904 0.0032082065008580685 -0.04787955433130264 0.22321735322475433 -0.44940340518951416 -0.25075387954711914 0.03307632729411125 0.1644093543291092 0.49502623081207275 0.010450001806020737 0.25496330857276917 0.07939179986715317 -0.513902485370636 0.45713528990745544 -0.6536318063735962 -0.10171060264110565 -0.12413918226957321 -0.0036805919371545315 0.17011862993240356 0.2924998700618744 0.0054282331839203835 -0.001875920919701457 0.004145044833421707 -0.32294178009033203 0.2831690013408661 0.3101261258125305 -0.33896341919898987 0.006754276808351278 0.125972718000412 -0.5486025214195251 0.8108227849006653 0.5484654903411865 -0.0933079868555069 0.5367726683616638 0.422352135181427 -0.4858236610889435 
이 -0.5357303023338318 -0.3942470848560333 -0.2759183645248413 0.18296875059604645 0.07768106460571289 -0.4864550530910492 -0.16713739931583405 0.4599528908729553 0.08819540590047836 0.19417273998260498 0.017279231920838356 -0.15766628086566925 -0.40866026282310486 -0.22430044412612915 0.05681237578392029 0.851889431476593 0.1837732195854187 -0.07775364816188812 -0.5340262651443481 -0.9827540516853333 0.16987094283103943 0.4458666443824768 0.41063374280929565 -0.111735038459301 0.2951453924179077 0.08890291303396225 -0.5768181085586548 0.38608425855636597 -0.5920138955116272 0.1733296513557434 0.32291722297668457 0.12714657187461853 0.5054163336753845 0.3454127311706543 -0.09737690538167953 0.22888816893100739 0.6463560461997986 0.1700955480337143 0.2916507124900818 -0.10679125785827637 0.45708274841308594 0.7395338416099548 -0.33614975214004517 -0.3556840121746063 0.07751500606536865 -0.049298178404569626 -0.3406141996383667 0.28555312752723694 0.717013418674469 0.6603550314903259 
능 -0.1561404913663864 0.5669628977775574 0.20803336799144745 0.5702049136161804 0.08181332796812057 -0.4765612781047821 0.42640891671180725 0.2133021354675293 -0.1501777619123459 -0.0008083423599600792 0.3243819773197174 0.05121895670890808 0.43922457098960876 -0.12111524492502213 -0.11930875480175018 -0.13662748038768768 0.07130394876003265 -0.011749444529414177 -0.36817076802253723 -0.3843936324119568 0.10429994761943817 0.11832450330257416 0.3624393939971924 -0.38253581523895264 0.5373369455337524 -0.23209978640079498 0.04283225163817406 0.11904752254486084 0.10458087176084518 -0.0931953638792038 0.06614979356527328 0.026310641318559647 -0.18901364505290985 0.4035598039627075 -0.0307307131588459 0.08696618676185608 0.10275241732597351 -0.11632387340068817 0.5760301351547241 0.4547455906867981 -0.41698020696640015 0.13009047508239746 0.019392479211091995 -0.12610945105552673 0.7831447124481201 -0.19277013838291168 -0.37051263451576233 0.21758130192756653 0.6244785785675049 0.09438075125217438 
송 0.2777668833732605 -0.04160596430301666 0.07330761104822159 -0.4091542661190033 0.0812855213880539 -0.5252130627632141 -0.11394869536161423 0.5679876208305359 -0.5785260796546936 -0.5576532483100891 0.3137778639793396 -0.7011834383010864 0.8605843782424927 -0.2247702032327652 -0.0896715596318245 0.3770662546157837 0.4852209985256195 -0.5927894115447998 -0.6279269456863403 -0.4924880564212799 -0.011440305039286613 0.07998018711805344 1.1654696464538574 0.005553700961172581 0.11022026091814041 0.3117346167564392 -0.0920676440000534 -0.13158293068408966 0.19821976125240326 1.0082918405532837 0.05002253130078316 -0.1795067936182022 -0.004822468850761652 0.2315988838672638 0.024721570312976837 0.2040604203939438 0.20452503859996796 0.1940692812204361 0.24872012436389923 0.5057743191719055 0.5751379728317261 -0.4247536063194275 0.12619931995868683 0.24429845809936523 0.020780323073267937 -0.7789991497993469 -0.32768064737319946 -0.4094521403312683 -0.21811708807945251 -0.1969015747308731 
배 0.11885349452495575 0.2783791124820709 -0.042890556156635284 -0.1626625806093216 0.5339207649230957 -0.3731479048728943 -0.06521383672952652 0.6053165197372437 -0.7551263570785522 -0.47684645652770996 0.10884830355644226 -0.6473932862281799 0.7068663239479065 0.230489119887352 -0.1304420530796051 0.4840552806854248 0.550233781337738 -0.6123198866844177 -1.0713155269622803 -0.44691774249076843 0.005337437614798546 0.25967633724212646 0.7941524982452393 0.42659029364585876 0.22102323174476624 0.5946437120437622 0.05320340767502785 0.07557506114244461 -0.055100321769714355 0.9750433564186096 0.08388031274080276 0.2505008280277252 -0.14501750469207764 0.1859426498413086 -0.4819648265838623 0.329448938369751 -0.013048172928392887 0.159226655960083 0.32460159063339233 0.2326546609401703 0.9203020334243774 -0.475157767534256 0.3468921482563019 0.19240260124206543 0.10978996753692627 -0.6372912526130676 -0.017451612278819084 -0.4387699365615845 -0.07750321924686432 -0.235415518283844 
리 0.6968340873718262 0.3900429904460907 0.011111404746770859 0.25031083822250366 0.2025180160999298 -0.5021228194236755 0.20827974379062653 0.5057487487792969 -0.38227570056915283 -0.11746151000261307 0.4670253098011017 -0.16619466245174408 -0.22891224920749664 -0.06388922035694122 0.39796721935272217 0.3142363727092743 0.47040101885795593 0.2012305110692978 -0.3548632860183716 -0.6188128590583801 0.24770545959472656 -0.2603881061077118 0.4051148593425751 -0.29791268706321716 -0.11590073257684708 0.037639446556568146 -0.1363949477672577 0.5052149891853333 0.08275732398033142 -0.08609068393707275 -0.3939705193042755 -0.4970819056034088 0.18752247095108032 -0.1782270073890686 0.01498521026223898 -0.20487013459205627 -0.19527578353881836 -0.0709560364484787 -0.12309158593416214 -0.26495662331581116 -0.43541643023490906 -0.23722176253795624 0.32532641291618347 0.46441102027893066 0.08307959884405136 0.014969075098633766 0.34247976541519165 0.11727550625801086 0.007496483623981476 0.7147471904754639 
알 0.29464593529701233 0.0672837495803833 0.3001246750354767 0.2163127213716507 -0.16338059306144714 -0.34486228227615356 0.07592803239822388 0.7132711410522461 -0.4161757230758667 -0.27857887744903564 0.13467612862586975 0.0442977137863636 0.12618130445480347 0.23989106714725494 -0.10019376873970032 0.49859893321990967 0.7473212480545044 0.40210533142089844 -0.3703562915325165 0.35621094703674316 0.49470600485801697 0.46668046712875366 0.12425002455711365 0.02075144834816456 0.13655251264572144 0.21555189788341522 -0.157785564661026 0.614203691482544 -0.1469457745552063 -0.0417528972029686 -0.50837242603302 0.41176190972328186 -0.021262940019369125 -0.23569105565547943 0.3418734073638916 0.12380074709653854 -0.1372523456811905 0.050397973507642746 0.20496489107608795 -0.11763900518417358 0.3156810998916626 -0.06078943982720375 -0.1813720017671585 0.1342911422252655 0.3416171371936798 -0.3071390986442566 -0.3125897943973541 0.1652732640504837 -0.4120275378227234 0.3629980981349945 
수 -0.5581328272819519 -0.2002047747373581 0.6712664365768433 -0.11137116700410843 -0.1179698184132576 -0.13387879729270935 0.31632834672927856 0.49562084674835205 0.043400466442108154 -0.46142756938934326 0.1898830384016037 -0.6429349780082703 -0.3905251622200012 -0.0680537223815918 0.33629730343818665 -0.31428632140159607 0.3236924409866333 0.7443731427192688 -0.025797715410590172 -0.8644132018089294 0.2841658592224121 0.6200001835823059 0.5667721629142761 0.1580367088317871 0.4278048574924469 0.5084658861160278 0.07766156643629074 0.8716737031936646 -0.005406912416219711 0.21131592988967896 0.14668548107147217 -0.10642288625240326 0.16230744123458862 0.27559882402420044 -0.20832206308841705 -1.0418293476104736 -0.4047571122646332 -0.361751526594162 0.6190127730369568 0.12327321618795395 -0.2607317268848419 0.3403802216053009 -0.19519895315170288 0.08149793744087219 -0.00992237962782383 -0.7604581117630005 0.012708254158496857 -0.17668628692626953 0.4061829745769501 0.5090709924697876 
문 0.5173503756523132 -0.08930932730436325 -0.3343522548675537 -0.2948138117790222 0.31274867057800293 -0.11252500116825104 -0.3015265166759491 0.011626603081822395 0.15179669857025146 -0.15256965160369873 -0.5415443778038025 -0.4791407585144043 0.6420127153396606 0.6085640788078308 -0.603895366191864 0.12612999975681305 0.36948269605636597 -0.12624485790729523 -0.6462709307670593 -0.1588682383298874 0.7090447545051575 0.4344730079174042 0.9367897510528564 -0.09465251117944717 -0.09112971276044846 0.3623586893081665 0.17151221632957458 -0.24865008890628815 -0.3826357424259186 0.37206539511680603 -0.5489476323127747 -0.01751973107457161 -0.042538102716207504 0.012311402708292007 -0.5657576322555542 0.2767600417137146 0.9570774435997009 0.2791951298713684 -0.37558844685554504 -0.0833691731095314 0.3612617552280426 -0.4558858871459961 0.17481066286563873 -0.24766692519187927 0.211009681224823 -0.5798206925392151 0.23208492994308472 -0.3134998679161072 0.3178262710571289 0.5293977856636047 
달 -0.654900074005127 0.2877970039844513 -0.7245439887046814 -0.38227900862693787 -0.26284217834472656 -0.4208492934703827 0.08661124855279922 0.028372488915920258 -0.02807365171611309 -0.028133414685726166 -0.3113649785518646 0.22156324982643127 -0.8908138871192932 -0.2371819168329239 0.21414245665073395 0.8415863513946533 0.3608727753162384 0.41887152194976807 -0.14758743345737457 -0.6809412837028503 0.5576491951942444 0.7771304249763489 0.7187362313270569 -0.1991175413131714 0.5984504818916321 0.006299627013504505 -0.5541160702705383 -0.08459436893463135 -0.2048475593328476 -0.4514400362968445 0.3710862994194031 0.011253765784204006 0.43788886070251465 -0.20170482993125916 -0.010548358783125877 -0.8531543016433716 -0.46618038415908813 0.12934622168540955 -0.17185650765895844 -0.1473800092935562 0.003564173821359873 0.5638211965560913 0.4145229160785675 0.14335788786411285 0.1190309002995491 -0.12213411182165146 -0.6150528788566589 -0.18148662149906158 0.5967016816139221 0.18101069331169128 
조 0.2042318433523178 0.6193442344665527 -0.36157476902008057 0.17472033202648163 -0.4928854703903198 0.15981200337409973 0.4670600891113281 -0.19879280030727386 -0.7289268374443054 0.9331687688827515 0.5898240804672241 0.2457224428653717 0.9866272211074829 0.7225605249404907 0.04499707370996475 -0.4217280149459839 0.7137289643287659 0.4333826005458832 -0.6479688286781311 -0.36139750480651855 -0.18986375629901886 -0.16396550834178925 0.571330189704895 0.29012274742126465 0.42530709505081177 0.34866228699684143 -0.37016090750694275 0.9634793996810913 -0.04252411052584648 0.30510830879211426 0.12088938057422638 -0.5259361267089844 0.2823423445224762 -0.586556613445282 -0.11127374321222305 -0.25441110134124756 1.1308847665786743 -0.11589428037405014 0.21037223935127258 -0.3186399042606354 0.27633896470069885 0.32875269651412964 0.31236356496810913 -0.2923855781555176 0.6375086903572083 -0.47323304414749146 0.11079101264476776 -0.23373085260391235 -0.10950936377048492 0.3883395195007324 
당 0.5016975998878479 0.1382216364145279 -0.7110642194747925 -0.4140527546405792 0.03577686473727226 -0.0410420261323452 0.3549700379371643 0.7336995005607605 0.1497214138507843 -0.46957334876060486 0.43392592668533325 -0.8820030689239502 -0.07269182801246643 -0.08858165144920349 -0.05157724767923355 0.2627980411052704 1.5233354568481445 -0.24546599388122559 0.1422523856163025 0.3133867084980011 0.9773707389831543 0.120506651699543 -0.1951577216386795 -0.05228763073682785 0.18018461763858795 0.04678061977028847 -0.6309413909912109 0.40217775106430054 0.4780323803424835 0.09182319790124893 -0.522555947303772 -0.10442352294921875 0.12644441425800323 -0.5951800346374512 -0.3198546767234802 -0.576050341129303 0.6188755035400391 0.46582886576652527 0.045641686767339706 1.0476990938186646 0.2905947268009186 -0.3230598270893097 0.9023975133895874 -0.14236195385456085 0.45698532462120056 0.05776892229914665 -0.6180537939071655 0.24659636616706848 0.365023136138916 0.5590534210205078 
청 -0.42819419503211975 -0.4515896141529083 -0.25357532501220703 -0.4538761079311371 -0.4881303906440735 -0.5171752572059631 0.7368133664131165 0.1727663278579712 0.15566003322601318 0.040935538709163666 -0.3355241119861603 -0.5344217419624329 0.1472608596086502 0.17636679112911224 0.2715003490447998 0.5442436337471008 -0.10636594891548157 0.3867729604244232 0.02175801806151867 -0.5454341173171997 -0.09648221731185913 0.04606499895453453 0.6850584149360657 -0.15027481317520142 0.14586052298545837 -0.33512169122695923 0.5242763757705688 0.33115607500076294 -0.09669908881187439 -0.410800963640213 -0.4189498722553253 0.007841379381716251 0.31571894884109497 -0.7665662169456482 0.03020256757736206 -0.31002700328826904 0.14336103200912476 0.05796286091208458 -0.13834735751152039 -0.3560432493686676 0.8473687171936035 0.437168151140213 0.2942313551902771 0.2552034854888916 0.5282929539680481 -0.18736596405506134 -0.21181751787662506 -0.0030265781097114086 0.23048481345176697 0.7096954584121704 
금 -0.3754484951496124 0.37708792090415955 -0.30591800808906555 -0.0122763030230999 -0.15203459560871124 -0.9393094182014465 -0.034826964139938354 0.5285277962684631 -0.7561370134353638 -0.03760259971022606 0.07850751280784607 -0.919883668422699 0.1541091948747635 0.17856064438819885 -0.2521512508392334 -0.07647501677274704 0.17879047989845276 0.17079401016235352 -0.434605211019516 -0.43816453218460083 0.18483883142471313 0.6085769534111023 0.5994604825973511 -0.28663474321365356 -0.1855553239583969 0.023735355585813522 -0.4973822236061096 0.1418977975845337 -0.13355793058872223 -0.3232649862766266 -0.23329079151153564 -0.06066394969820976 0.30053913593292236 0.7477102875709534 -0.32123011350631714 0.10847226530313492 0.3883267641067505 -0.6460745930671692 -0.3438996374607086 0.28097403049468994 0.4234161078929901 -0.07948150485754013 -0.3327953517436981 0.11727485805749893 0.23207278549671173 0.1602177768945694 -0.7858442664146423 0.027592826634645462 0.18072564899921417 -0.30707719922065735 
개 -0.6562882661819458 -0.29083776473999023 -0.152989462018013 0.6651232838630676 -0.7149825692176819 -0.24998684227466583 0.4712153673171997 -0.32845404744148254 0.3472513258457184 0.15326088666915894 0.1735697090625763 0.1570592224597931 0.4218124747276306 -0.26944267749786377 0.36865508556365967 -0.21763932704925537 0.23550140857696533 1.210545539855957 -0.6979103088378906 -0.4958411753177643 -0.24037185311317444 0.7335719466209412 0.7341487407684326 -0.18863917887210846 0.6318415403366089 0.5925626158714294 -0.1511419117450714 0.1599697321653366 -0.0686567947268486 -0.13563624024391174 0.02121048979461193 -0.5080102682113647 0.24808959662914276 0.25490522384643555 -0.4697921574115753 -0.3253397047519684 0.17496949434280396 -0.7628874778747559 0.717637300491333 0.8783794045448303 -0.25368091464042664 0.5961508750915527 0.17549286782741547 -0.4285639524459839 0.5926071405410767 0.11218265444040298 -0.26208776235580444 0.6420214772224426 0.905379593372345 0.3440898656845093 
마 -0.2936854958534241 -0.23785977065563202 0.37031981348991394 0.1619381308555603 -0.07547640800476074 -0.07307562977075577 -0.2791493833065033 0.7939123511314392 -0.43982890248298645 0.17551463842391968 0.028780987486243248 -0.6635770201683044 -0.24313294887542725 -0.15059153735637665 -0.15302354097366333 0.7786189317703247 0.1176878809928894 -0.4928414821624756 -0.49524247646331787 -1.5153136253356934 0.22710850834846497 0.6879937052726746 0.3449467718601227 0.3899441361427307 -0.14068666100502014 0.7090986967086792 -0.7968399524688721 -0.26227861642837524 0.06963592767715454 0.19994071125984192 0.8447898030281067 -0.04712354391813278 0.5121078491210938 -0.21121910214424133 -0.04868056997656822 0.2582595646381378 0.3415840268135071 -0.10785853862762451 -0.10893778502941132 -0.06301465630531311 -0.04093778133392334 0.2401386946439743 -0.37991657853126526 -0.1070617288351059 0.5948742032051086 -0.08366501331329346 -0.5521424412727356 -0.07922115176916122 0.7593584656715393 0.018077822402119637 
내 0.02320016920566559 -0.45039892196655273 0.33815106749534607 0.5825627446174622 -0.34969305992126465 -0.07348316162824631 0.5035366415977478 0.1081772893667221 -0.7028184533119202 0.18090228736400604 0.1827605962753296 0.29442939162254333 0.232820063829422 0.1625065952539444 0.3240126967430115 0.07096712291240692 -0.7043291330337524 1.1209830045700073 -0.60760897397995 -0.4132634103298187 -0.06436707079410553 0.13143084943294525 0.9394011497497559 -0.14527249336242676 -0.0018920605070888996 -0.30329421162605286 0.01659727469086647 0.12299320101737976 0.2782033085823059 0.589964747428894 0.3532496988773346 -0.8608554005622864 0.12771347165107727 -1.1646019220352173 -0.08108331263065338 -0.46008947491645813 0.4120411276817322 -0.41837558150291443 -0.07092060148715973 0.26204177737236023 0.7478886842727661 0.06428531557321548 0.15296383202075958 0.647711992263794 0.7857286334037781 -0.46599894762039185 0.03786003217101097 -0.8508315086364746 0.02044697292149067 0.16268135607242584 
상 -0.31123748421669006 0.5219752192497253 0.11858751624822617 -0.3138720691204071 -0.026316702365875244 -0.6683349013328552 0.25303909182548523 0.19800925254821777 -0.7285915613174438 -0.29745668172836304 -0.13292646408081055 -0.3045690059661865 0.6615791320800781 -0.32801735401153564 -0.005292651709169149 -0.49904394149780273 0.06377673149108887 -0.11429157108068466 -0.38998517394065857 -0.8971830010414124 0.2960399091243744 0.4561375677585602 0.5584737658500671 -0.10135799646377563 -0.20721952617168427 -0.14790970087051392 -0.17848733067512512 0.061809781938791275 -0.40052586793899536 0.10515308380126953 0.23472370207309723 0.5052782297134399 -0.32621535658836365 0.14734219014644623 0.1623053103685379 0.30408528447151184 -0.1384621113538742 0.02679239958524704 0.247672438621521 0.04229893907904625 0.2118316888809204 -0.29906681180000305 -0.034771230071783066 -0.08474431931972504 1.0959416627883911 -0.11883699148893356 -0.30966779589653015 -0.02215907722711563 0.4068869650363922 -0.2269899845123291 
역 0.3315463662147522 0.09094863384962082 0.05240442976355553 0.050925206393003464 -0.08726141601800919 -0.25404679775238037 0.8044226169586182 0.10520927608013153 -0.6375029683113098 0.25785547494888306 -0.4243035912513733 -0.18027913570404053 -0.34290811419487 0.19735780358314514 0.009622751735150814 0.25479868054389954 0.020135320723056793 0.8602879643440247 -0.08379444479942322 -0.6356683969497681 -0.04730147495865822 -0.03732915595173836 0.8124625086784363 0.3876838684082031 0.12784667313098907 0.3353728652000427 0.5852970480918884 0.8536995053291321 0.24788354337215424 0.27135613560676575 -0.3027324378490448 -0.4271557927131653 0.5381304621696472 -0.5731920599937439 0.32602250576019287 -0.2903880476951599 0.7220270037651062 -0.6429445743560791 0.16500066220760345 0.1484697312116623 0.6743910312652588 -0.22761893272399902 0.36164650321006775 0.5047390460968018 1.3058964014053345 -0.221904918551445 -0.1755739450454712 -0.8176277875900269 0.07642173022031784 -0.059265829622745514 
업 0.47869589924812317 -0.8188908100128174 -0.7412903308868408 0.3692423701286316 -0.18435178697109222 -0.4005160927772522 0.5323565006256104 0.832161545753479 -0.1942766308784485 -0.5616426467895508 -0.09277419000864029 -0.33144715428352356 0.4354378879070282 0.5387588739395142 0.02573378011584282 0.30263566970825195 0.481163889169693 0.15187571942806244 0.4338027238845825 0.27902448177337646 0.8065105676651001 0.013224218040704727 0.16271719336509705 -0.23455177247524261 1.0940476655960083 -0.09759445488452911 -0.21945348381996155 0.47558093070983887 -0.27167508006095886 -0.07990948855876923 0.36722302436828613 -0.6797340512275696 0.27716323733329773 -0.9909700751304626 -0.3736366331577301 -0.061702243983745575 0.35994240641593933 0.3587343990802765 0.16094724833965302 0.2693585455417633 -0.03353242576122284 -0.5131359100341797 0.4526199996471405 0.6417876482009888 0.515096127986908 0.3309784233570099 -0.30527764558792114 -0.2885707914829254 0.5017064213752747 0.34962233901023865 
영 0.15789151191711426 -0.45687800645828247 -0.5062435269355774 0.3445620834827423 -0.231303408741951 -0.0011539800325408578 0.47783365845680237 0.6550049781799316 -0.024166781455278397 -0.4474080204963684 0.012603281065821648 -0.1252368986606598 0.3819648325443268 0.4026491045951843 -0.29161521792411804 0.5803257822990417 0.6661203503608704 -0.11131679266691208 0.29330191016197205 0.133464977145195 1.0279406309127808 0.07603595405817032 0.2449244260787964 -0.2430100291967392 1.1022911071777344 -0.04572104290127754 -0.23279167711734772 0.41465404629707336 -0.5858387351036072 -0.2619941830635071 -0.059423185884952545 -0.7477080225944519 0.5937210321426392 -0.76885586977005 -0.08078931272029877 -0.12445847690105438 0.09673792123794556 0.5669203400611877 0.013640100136399269 0.3347228169441223 0.07296369969844818 -0.6850771903991699 0.6603142619132996 0.6784114837646484 0.6724370718002319 0.2960623502731323 0.1224457174539566 -0.3734700083732605 0.31944048404693604 0.5385662317276001 
되 0.5025880336761475 -0.18696673214435577 0.15213941037654877 -0.035422325134277344 -0.2704261541366577 -0.14427369832992554 0.7668561339378357 0.51350337266922 0.05197548121213913 -0.21536505222320557 0.47665297985076904 -0.3502967059612274 0.1023525595664978 -0.16169513761997223 0.41495227813720703 -0.061614569276571274 0.24677951633930206 0.31127220392227173 -0.470722496509552 -0.10761938989162445 0.2596164047718048 0.04062269255518913 0.06658020615577698 -0.23897887766361237 0.13860026001930237 0.052037954330444336 0.1921762377023697 -0.14975546300411224 -0.08154529333114624 0.056547604501247406 -0.1632295697927475 0.04249070957303047 0.4761295020580292 0.011009510606527328 -0.42525365948677063 -0.2694492042064667 0.14345043897628784 0.09402182698249817 0.13250195980072021 -0.053617145866155624 -0.1872960925102234 0.28715062141418457 0.39288702607154846 0.13706302642822266 0.10101903229951859 0.3639364540576935 0.17042987048625946 0.07589555531740189 0.15636436641216278 0.04491768032312393 
플 -1.0475836992263794 -0.4459226131439209 -1.1104334592819214 0.06777730584144592 -0.17353396117687225 -0.03357313573360443 0.44624781608581543 -0.07054831087589264 0.3953026533126831 -0.20024552941322327 -0.2148004174232483 -0.5369324684143066 -0.4166911244392395 -0.07437814772129059 0.22707614302635193 0.5054704546928406 -0.16775847971439362 0.92535400390625 -1.0098979473114014 -0.4365766942501068 0.08344118297100067 0.849382221698761 0.746902585029602 0.13124030828475952 0.6390085220336914 0.47757816314697266 0.353633850812912 0.6375910043716431 -0.46061545610427856 -0.07767236977815628 0.5873286128044128 -0.5697371363639832 0.6110662221908569 -0.35090193152427673 0.605504035949707 -0.5706332325935364 -0.23018568754196167 -0.4675710201263428 0.19235536456108093 0.16597668826580048 -0.1913260966539383 -0.3302246630191803 -0.5087411403656006 0.9051797986030579 0.04545629024505615 -0.8704088926315308 -0.3541019558906555 0.24888606369495392 0.8948776721954346 0.5725212693214417 
샘 -0.8492570519447327 -0.3327866196632385 -0.9851877689361572 0.15393926203250885 -0.12399967014789581 -0.2342638522386551 0.2897363603115082 -0.06263793259859085 0.4270035922527313 -0.05840905383229256 -0.17111192643642426 -0.5122562646865845 -0.4067988693714142 -0.11651685833930969 0.2282593697309494 0.16652590036392212 -0.1762029230594635 1.1495558023452759 -0.8026964664459229 -0.5435765981674194 0.09672807157039642 0.8273707032203674 0.6416558027267456 0.5911306142807007 0.8254698514938354 0.19655513763427734 0.20309074223041534 0.2918260097503662 -0.6970275640487671 -0.18052946031093597 0.42205432057380676 -0.5520472526550293 0.6398711204528809 -0.08285386115312576 0.20004481077194214 -0.44424423575401306 -0.2265908420085907 -0.15783794224262238 0.43039149045944214 0.16153469681739807 0.021843109279870987 -0.22196878492832184 -0.44202926754951477 0.686394453048706 0.13988277316093445 -0.925347089767456 -0.42442581057548523 -0.11566819250583649 0.7212108373641968 0.7082118391990662 
자 0.12871895730495453 -0.5454702973365784 -0.4458099901676178 -0.15459269285202026 -0.3426249325275421 -0.13699984550476074 0.9032289981842041 0.7603898048400879 -0.6015171408653259 -0.6420014500617981 0.0818760022521019 0.033464424312114716 0.355106383562088 -0.39756354689598083 -0.7891950011253357 0.8405765891075134 0.4849890470504761 -0.3915269374847412 0.13758210837841034 0.029396316036581993 1.1400392055511475 0.2397969514131546 -0.1755925416946411 0.1784830540418625 1.0211801528930664 0.5316985845565796 -0.27877506613731384 0.06546498090028763 -0.3082239329814911 -0.3002103567123413 -0.2391016036272049 -0.5145247578620911 0.2727232575416565 -0.20828339457511902 -0.6402720212936401 0.5724374651908875 0.3594536781311035 0.31370487809181213 0.05172063410282135 0.6011187434196472 -0.1777830570936203 0.2698221504688263 0.36241817474365234 0.2618856430053711 0.629427969455719 0.2246626615524292 -0.00834797602146864 -0.07434841990470886 0.20565417408943176 0.17982067167758942 
드 -0.2663458585739136 0.1946408450603485 0.28984442353248596 0.6744796633720398 0.12815968692302704 0.06059793382883072 0.42298635840415955 0.4206320345401764 -0.2753753960132599 -0.19151118397712708 0.1639641523361206 0.06898117810487747 0.27610209584236145 0.07848811149597168 -0.6888860464096069 0.15592865645885468 0.567070484161377 0.06576987355947495 -0.5562317967414856 0.28549623489379883 -0.03059224784374237 -0.05912363901734352 0.6373319625854492 0.07883510738611221 0.5379135608673096 -0.2628293037414551 -0.5180975794792175 0.3500623106956482 -0.18368463218212128 -0.40269380807876587 0.3024325966835022 -0.7686890959739685 0.33024346828460693 -0.31518349051475525 0.2898380160331726 -0.636324942111969 0.16630814969539642 -0.42640751600265503 0.23896773159503937 -0.46157771348953247 -0.3679063320159912 -0.12744316458702087 0.10043617337942123 0.014434457756578922 -0.11518190801143646 -0.04219309240579605 -0.586264431476593 -0.5975145101547241 0.07973948866128922 0.3868938684463501 
신 -0.14949335157871246 0.11071442812681198 -0.13576163351535797 -0.0780586451292038 -0.6308113932609558 -0.40547460317611694 0.2850707471370697 0.3814617395401001 -0.1688673347234726 -0.2213224470615387 0.06801415234804153 0.573189377784729 -0.7616013288497925 0.025486841797828674 0.2738851308822632 -0.0018722951645031571 0.3470972180366516 1.4869766235351562 -0.44305434823036194 -0.4227991998195648 0.16223417222499847 0.32143864035606384 0.5056121349334717 -0.0831950232386589 0.3250037431716919 0.20658665895462036 0.2581607401371002 0.6549670100212097 0.11741205304861069 0.2894856333732605 -0.5873615741729736 -0.3308181166648865 0.4601658880710602 -0.4849490821361542 -0.3044043183326721 -0.375750869512558 0.3294124901294708 -0.4438716769218445 0.16645929217338562 0.29622507095336914 0.6481731534004211 0.011392049491405487 -0.16138111054897308 -0.09643549472093582 0.4397791028022766 -0.5168572664260864 -0.231632262468338 0.09681891649961472 0.4129871428012848 0.2758205831050873 
언 -0.30598801374435425 0.5215224623680115 -0.03687628358602524 0.3891594111919403 0.13898737728595734 -0.690839946269989 0.7594829797744751 0.7465253472328186 -0.031254615634679794 -0.1262950897216797 0.09620063751935959 -0.29969432950019836 0.41061797738075256 0.06632565706968307 0.6976073980331421 0.25870034098625183 0.2407769113779068 0.18888026475906372 0.057040344923734665 -0.5417143702507019 0.8579131364822388 0.5175689458847046 0.30457478761672974 -0.08339245617389679 0.05260802432894707 0.5363301634788513 -0.45615386962890625 0.2098369598388672 0.4708314538002014 0.3642088770866394 -0.022581294178962708 0.07413346320390701 0.21354670822620392 -0.37897399067878723 0.34978172183036804 0.6029501557350159 -0.08278291672468185 0.46450087428092957 0.057739634066820145 0.6655667424201965 0.8748129606246948 -0.3706570863723755 -0.35294467210769653 0.21364833414554596 -0.46494463086128235 -0.6968902349472046 0.06848456710577011 0.4224754571914673 0.16170671582221985 -0.05148040130734444 
호 0.13413280248641968 -0.8162532448768616 -1.0229555368423462 0.8749092221260071 0.30995628237724304 0.5979742407798767 0.705515444278717 0.2201850563287735 -0.5907160043716431 -0.33528292179107666 -0.37482529878616333 -0.8419291973114014 0.3808513283729553 0.5687395334243774 -0.28246673941612244 0.028002485632896423 0.26054108142852783 -0.48169657588005066 -0.17175066471099854 0.45199811458587646 0.4466942250728607 -0.27540233731269836 1.0830212831497192 -0.3520191013813019 0.2321169078350067 0.3198584020137787 -0.4165756404399872 0.30548617243766785 0.014108451083302498 0.20113079249858856 -0.03788008540868759 -0.41897282004356384 0.32912927865982056 -0.4662722051143646 -0.18359628319740295 -0.778983473777771 -0.032327521592378616 -0.44481638073921204 0.5452356338500977 0.2228713184595108 -0.5600242018699646 -0.512669563293457 -0.0020975552033632994 0.36516839265823364 0.6250678300857544 -0.511836588382721 -0.19577555358409882 -1.0146496295928955 -0.37979716062545776 0.5596097111701965 
감 -0.5513110756874084 -0.22880971431732178 0.6751827001571655 0.05902278423309326 -0.5536924004554749 0.04786745458841324 -0.23763586580753326 0.10942020267248154 -0.3083381652832031 -0.28146690130233765 -0.525121808052063 -0.08176980912685394 -0.45097315311431885 0.36953121423721313 0.33995750546455383 0.4350963532924652 0.26593682169914246 0.2664882242679596 -0.033173397183418274 -1.2855801582336426 0.5981089472770691 0.6055050492286682 0.8116005063056946 -0.20832887291908264 -0.3542032539844513 1.0207338333129883 -0.5048324465751648 -0.09678381681442261 0.16881947219371796 -0.009926769882440567 1.1273257732391357 -0.6449628472328186 0.08686674386262894 -0.7037336826324463 -0.05819811299443245 -0.9861010313034058 0.17774857580661774 0.243063822388649 0.1880325824022293 0.3744417428970337 0.17406649887561798 0.39008307456970215 0.3210478723049164 -0.11680972576141357 0.49570199847221375 -0.6200935244560242 -0.45177745819091797 -0.014843197539448738 0.4787294864654541 0.059116434305906296 
담 0.3894893527030945 -0.36622899770736694 -0.47961539030075073 0.4603792130947113 -0.8089030981063843 -0.037513673305511475 0.8893359899520874 0.8419041037559509 -0.5168809294700623 -0.404579758644104 -0.015373457223176956 -0.6579051613807678 0.26585131883621216 0.5411508083343506 -0.21983179450035095 0.45232096314430237 0.7764853239059448 -0.2578803300857544 0.1864473819732666 0.24804933369159698 0.8690652847290039 0.4413721263408661 -0.12231485545635223 -0.2716943025588989 1.0593305826187134 0.05630810558795929 -0.027265364304184914 0.26882070302963257 -0.33536460995674133 0.05641467869281769 -0.016088344156742096 -0.6356396079063416 0.6231659650802612 -0.6792433857917786 -0.6037116646766663 -0.16559836268424988 -0.21007415652275085 0.4281063377857208 -0.26277363300323486 0.5981765389442444 -0.007066800259053707 -0.5208083391189575 0.3664156198501587 0.26264333724975586 0.43738651275634766 0.31262674927711487 -0.0073942141607403755 -0.31545835733413696 0.29561957716941833 0.70088130235672 
부 -0.4537713825702667 0.1713777631521225 0.35995203256607056 0.17984044551849365 -0.024843929335474968 -0.469836950302124 0.9811652898788452 0.2384907603263855 -0.1618189811706543 -0.3603159487247467 0.1059269979596138 0.03633894771337509 -0.07324951142072678 0.25364941358566284 -0.28934305906295776 0.30160608887672424 0.5789062976837158 0.7571730017662048 -0.4532235860824585 0.02154957875609398 -0.12020657956600189 -0.12304610759019852 0.14471754431724548 0.04984021559357643 -0.015489598736166954 -0.5078474879264832 -0.19606009125709534 -0.3767797648906708 -0.04448802396655083 -0.7467231154441833 0.5638120770454407 0.0845094546675682 0.18208453059196472 0.1401686817407608 0.2134706676006317 -0.6768757700920105 0.2775590419769287 -0.5112671852111816 0.6175419092178345 -0.02542310766875744 -0.25536662340164185 -0.08737147599458694 0.4574454724788666 -0.4589928686618805 0.09614162147045135 -0.03514139726758003 0.33626601099967957 -0.40704578161239624 0.6721067428588867 0.19887223839759827 
봉 -0.11970514804124832 0.49122241139411926 -0.08846650272607803 0.25567150115966797 -0.4040517210960388 0.15788191556930542 0.7760552763938904 0.48938384652137756 0.1604139804840088 0.3434258699417114 0.3911135792732239 0.2718804180622101 0.41071194410324097 -0.36032459139823914 0.10572391003370285 0.22266492247581482 -0.11215634644031525 0.47150442004203796 -0.9180591702461243 -0.5316060185432434 -0.14148671925067902 0.6642816066741943 0.673225998878479 -0.06056365743279457 0.14963091909885406 0.13904878497123718 0.4463565945625305 0.752660870552063 -0.19907748699188232 -0.18349102139472961 0.7350704669952393 -0.3847425878047943 0.08017042279243469 0.027203409001231194 0.058849092572927475 -0.5687146186828613 -0.23508544266223907 -0.41392433643341064 0.8158711194992065 1.0667129755020142 0.11646305024623871 0.23375391960144043 -0.0941712036728859 0.1544656753540039 1.3028841018676758 -0.30005115270614624 0.35778865218162537 0.07353831827640533 1.4218376874923706 -0.6942691206932068 
싶 0.0817117914557457 0.4729006290435791 -0.0008006658172234893 -0.26164814829826355 -0.032671138644218445 -0.21894259750843048 0.47783955931663513 0.6561548709869385 0.117039754986763 -0.3124241530895233 0.06740504503250122 -0.22432588040828705 0.08519813418388367 -0.483486533164978 -0.11447550356388092 0.11384829878807068 -0.041593894362449646 0.14938101172447205 -0.16964733600616455 -0.44378694891929626 0.1493406891822815 0.20034454762935638 0.4090077877044678 0.0016720544081181288 0.2357986718416214 -0.04281133785843849 0.3602697551250458 -0.0362824983894825 -0.23368489742279053 0.17145611345767975 -0.6271425485610962 -0.11342395842075348 0.1080644354224205 -0.19363757967948914 -0.2551608979701996 0.34586694836616516 0.45731407403945923 0.1712624728679657 0.26567238569259644 -0.1467273235321045 0.14577370882034302 0.01711200177669525 -0.22360271215438843 -0.28672587871551514 0.45954620838165283 -0.012788274325430393 0.023824041709303856 0.4264153242111206 0.4286273717880249 0.39186179637908936 
착 0.17636771500110626 -0.009374209679663181 -0.21460400521755219 -0.16488006711006165 -0.05357930436730385 -0.40070632100105286 0.06851792335510254 0.11774300783872604 -0.7230265140533447 -0.693162202835083 0.49802374839782715 -1.0197975635528564 0.7032577395439148 0.12057553231716156 0.4962456226348877 0.10282111912965775 1.2039942741394043 -0.20557013154029846 -0.9846358299255371 -0.44802531599998474 0.41091957688331604 -0.08481696248054504 0.20365643501281738 0.13889245688915253 0.47509080171585083 0.20632195472717285 -0.48409995436668396 0.5295221209526062 0.44434720277786255 0.8463485836982727 0.4618467092514038 0.2832791209220886 0.31596890091896057 -0.10289430618286133 -0.06750525534152985 -0.3048184812068939 0.0010956181213259697 0.6560980081558228 0.28817710280418396 1.3554011583328247 0.3938131630420685 -0.9162402749061584 1.0907386541366577 -0.14865157008171082 0.5380469560623169 -0.9508273601531982 -0.5278835296630859 0.11133729666471481 0.3429900109767914 -0.26624590158462524 
정 -0.8733906745910645 0.24866463243961334 -0.006105451378971338 0.46652859449386597 0.07854151725769043 -0.616801917552948 0.7386990189552307 0.06658874452114105 -0.9095939993858337 0.3561142683029175 -0.034035924822092056 0.04288570210337639 0.42774438858032227 -0.2784391939640045 -0.25238579511642456 -0.2995121479034424 0.6965667009353638 0.7320522665977478 -0.25391098856925964 -0.7610585689544678 0.8795046806335449 0.15773563086986542 0.5500755310058594 0.10548631846904755 -0.7392160892486572 0.07780928164720535 -0.044908106327056885 1.2442033290863037 0.1860647350549698 -0.013361454010009766 0.08138327300548553 -0.29734888672828674 0.10255268961191177 0.21232767403125763 0.0029747486114501953 -0.06805203855037689 -0.5727220773696899 0.017329616472125053 0.19537155330181122 0.5748311281204224 0.6092994809150696 -0.06555688381195068 0.22034287452697754 0.3636348843574524 0.46669232845306396 -0.33351579308509827 0.25142133235931396 -0.29533442854881287 1.0411123037338257 -0.09255792945623398 
도 0.23693528771400452 0.1475628763437271 -0.23908646404743195 -0.08302715420722961 -0.09225127846002579 -0.23449596762657166 0.1521238386631012 0.08579937368631363 -0.8221406936645508 -0.8373573422431946 0.3999217450618744 -1.0699759721755981 0.6774187088012695 0.11852183192968369 0.38785895705223083 0.07805066555738449 1.221667766571045 -0.32162895798683167 -0.8951834440231323 -0.44598662853240967 0.564189076423645 -0.05438453331589699 0.2921983003616333 0.16893921792507172 0.5217278599739075 0.20739926397800446 -0.3151610493659973 0.5158587694168091 0.353455513715744 0.8411673307418823 0.520978569984436 0.24449600279331207 0.20872682332992554 0.003858038689941168 -0.08711909502744675 -0.39000847935676575 -0.05164282023906708 0.7203176021575928 0.17606528103351593 1.1802486181259155 0.6333388090133667 -0.8043599128723145 0.9962690472602844 -0.3669223487377167 0.3890928626060486 -0.8972886204719543 -0.34522223472595215 0.005894704721868038 0.396146684885025 -0.2514578104019165 
원 0.4322855472564697 0.2531253397464752 -0.384960800409317 0.29643282294273376 0.2825470268726349 -0.024700548499822617 1.010986566543579 -0.01710512489080429 0.6125620603561401 0.06566782295703888 -0.11396165937185287 -0.38968104124069214 -0.05440051481127739 0.687755286693573 -0.444633811712265 0.1220472902059555 0.5100278258323669 0.18049490451812744 -0.060231756418943405 -0.03401380777359009 0.11749545484781265 0.5029504299163818 0.31560972332954407 0.3922213017940521 0.7420904636383057 -0.1420438587665558 -0.43029409646987915 0.4490763247013092 -0.4755292236804962 -0.24601128697395325 0.16424718499183655 -1.0633578300476074 0.1726984679698944 -1.3181486129760742 -0.2030806839466095 -0.032029181718826294 0.13440392911434174 0.46807417273521423 0.466144859790802 -0.16256119310855865 -0.3547571003437042 -0.47437959909439087 0.06151297688484192 0.17367218434810638 0.3151887357234955 0.15656964480876923 -0.5448396801948547 -0.2670275866985321 0.3961194157600403 0.7096842527389526 
액 -0.28805264830589294 -0.47690510749816895 -0.5680443048477173 -0.047613125294446945 -0.5355669260025024 -0.49072614312171936 0.16008813679218292 0.7424402832984924 -0.8648862242698669 0.47516366839408875 -0.38875502347946167 -0.8824608325958252 0.35020744800567627 0.25252455472946167 -0.141567662358284 0.17248430848121643 -0.24463413655757904 -0.2468346804380417 -0.8328577280044556 -1.083664894104004 -0.11097394675016403 0.9486023187637329 0.6684898138046265 -0.477295458316803 -0.448781818151474 -0.18645167350769043 -0.6252454519271851 -0.030916448682546616 -0.07214634865522385 -0.21347454190254211 0.43127310276031494 -0.45668670535087585 0.49814218282699585 0.2500470280647278 -0.26583975553512573 -0.16251510381698608 0.7490513324737549 -0.650790810585022 0.02645229548215866 0.5590857267379761 0.213785782456398 0.24659334123134613 -0.023838331922888756 -0.17398683726787567 0.635193407535553 -0.505756139755249 -0.07287479937076569 0.11186238378286362 -0.35930097103118896 -0.08108289539813995 
비 0.4541078209877014 0.2864084839820862 -1.1273329257965088 -0.03759751096367836 -0.6109899282455444 -0.3910887539386749 -0.059705618768930435 0.3040386140346527 0.08844257891178131 -0.11168581992387772 -0.17341457307338715 -0.48306384682655334 1.1652600765228271 0.17903509736061096 -0.7577238082885742 0.3543401062488556 0.8002232909202576 -0.5282363891601562 -0.548506498336792 -0.8370205163955688 0.16848209500312805 0.9890344738960266 0.7496240139007568 -0.0016141162486746907 0.09134850651025772 -0.17973965406417847 -0.4541513919830322 -0.5795174837112427 -0.3688126802444458 0.5983502268791199 0.8269583582878113 0.2454051673412323 0.17406558990478516 0.0897822454571724 -0.33728551864624023 -0.0700182393193245 0.5267778635025024 -0.15667244791984558 -0.39474382996559143 0.1378759741783142 0.08678168058395386 -0.0847528949379921 0.13352172076702118 -0.3714076578617096 0.9361551403999329 -0.3660687804222107 0.22253423929214478 0.19816626608371735 0.14075317978858948 0.05897209048271179 
코 -0.5616543889045715 -0.29104331135749817 -0.6427973508834839 0.466114342212677 0.2774747610092163 0.014940948225557804 0.28104016184806824 0.06132885068655014 -0.7253450751304626 0.19027204811573029 0.15654294192790985 -0.5971007943153381 0.17380651831626892 0.2790451943874359 -0.6459636092185974 -0.19814495742321014 -0.00022741916473023593 -0.08478318899869919 -0.4665960967540741 0.5450953245162964 0.4403107166290283 -0.7158899903297424 1.214521050453186 0.11993587017059326 0.8562040328979492 -0.21947795152664185 -0.39887428283691406 0.4453711211681366 -0.6563448905944824 0.5275546908378601 0.23440715670585632 -0.7263572216033936 0.1338028460741043 -0.17331969738006592 -0.1278160661458969 -0.5248658061027527 0.5813532471656799 -0.48299649357795715 0.2348659336566925 0.10824935138225555 -0.559788703918457 -0.5138646364212036 0.09205126017332077 0.2833631932735443 0.4049784243106842 -0.7408567667007446 -0.5427926778793335 -1.2368720769882202 0.5780383348464966 0.6115601062774658 
시 0.05493839085102081 0.0879661962389946 -0.35567477345466614 0.11251002550125122 0.4036518633365631 -0.0963822528719902 0.2812473773956299 -0.061639558523893356 -1.0071309804916382 -0.3449883460998535 0.5267652869224548 -0.911137044429779 0.6644155979156494 0.28898751735687256 0.06373526901006699 -0.002655050018802285 1.1700413227081299 -0.27772435545921326 -1.1769191026687622 -0.22603963315486908 0.45350199937820435 -0.3755781948566437 0.2847862243652344 0.14636996388435364 0.45744529366493225 0.6020870208740234 -0.43527260422706604 0.3523373603820801 0.41780808568000793 0.5639193058013916 0.13074061274528503 0.046755675226449966 -0.07931351661682129 -0.15888352692127228 0.33061254024505615 -0.3706309497356415 0.18652214109897614 0.33521756529808044 0.24176527559757233 1.0572749376296997 -0.04999964311718941 -0.9424843192100525 1.1609766483306885 0.06575042009353638 0.20331329107284546 -0.623412549495697 -0.6999711990356445 0.2001984417438507 0.10526962578296661 -0.1416301131248474 
궁 -0.324005663394928 -0.08326926827430725 0.1909082531929016 0.03781256452202797 0.19997994601726532 -0.5559057593345642 0.3217034339904785 -0.0659855529665947 -0.34977662563323975 0.10050171613693237 0.4923696219921112 -0.6851402521133423 0.5180040597915649 -0.04932618513703346 -0.15435519814491272 0.06850428134202957 0.18308423459529877 -0.04678533598780632 -0.7633829712867737 -0.4164213240146637 0.4002395272254944 0.42562735080718994 0.6002720594406128 -0.3953336775302887 0.034219324588775635 -0.28298845887184143 -0.45735886693000793 0.32569703459739685 -0.06308495253324509 0.09898362308740616 -0.2872607409954071 0.3315848708152771 -0.18963681161403656 0.4929422438144684 -0.12330008298158646 0.039877213537693024 -0.20199444890022278 0.20119601488113403 0.21111296117305756 -0.06706516444683075 0.09356636554002762 0.5323753952980042 -0.05047127604484558 -0.26267439126968384 0.33224907517433167 0.18022006750106812 -0.2155122309923172 -0.11770446598529816 -0.07885590195655823 -0.023689493536949158 
연 0.4507496654987335 -0.3765072226524353 -0.21032297611236572 0.40021300315856934 -0.08051329851150513 -0.22323721647262573 0.7509235739707947 0.7726106643676758 -0.07817158102989197 -0.8510097861289978 -0.3234001398086548 -0.39051195979118347 0.45605066418647766 0.34574174880981445 0.11544578522443771 -0.026266256347298622 0.5663241744041443 0.26121705770492554 0.25820979475975037 -0.4024617373943329 1.1370831727981567 0.07289624214172363 0.0604793019592762 -0.3494854271411896 0.34528395533561707 -0.02735278755426407 0.3352378010749817 0.6087080836296082 -0.21599674224853516 -0.5381063222885132 0.1373750865459442 -0.38633882999420166 0.42203253507614136 -0.7258166074752808 0.22077585756778717 -0.5902701616287231 -0.3975345492362976 0.16858617961406708 0.3579898178577423 0.46203917264938354 -0.4144930839538574 -0.86345374584198 0.6503446102142334 0.3543522357940674 0.6639037728309631 0.06304414570331573 0.36509543657302856 0.07223818451166153 0.5544126033782959 0.16743701696395874 
대 -0.6298635601997375 0.1480572372674942 0.15626515448093414 0.38083454966545105 -0.7451326847076416 -1.0913794040679932 0.1256101280450821 -0.41839680075645447 -0.5917922854423523 0.21535097062587738 -0.42568302154541016 -0.7379422187805176 0.3323708176612854 0.1522156149148941 -0.7597332000732422 -0.5946522355079651 -0.3911280632019043 0.5009641051292419 -0.1829950213432312 -0.7099980711936951 0.6589549779891968 1.3180798292160034 0.7648226022720337 -0.5830540657043457 -0.0471993125975132 0.024056237190961838 -0.39544928073883057 0.9672178030014038 0.14986731112003326 0.16591492295265198 0.12153437733650208 -0.6477637887001038 0.15026643872261047 0.10353472828865051 -0.49063968658447266 -0.07780037820339203 -0.2907429337501526 -0.0945339947938919 0.017591100186109543 0.665195107460022 0.6082871556282043 0.03940849006175995 0.3307455778121948 -0.03782001510262489 0.7973571419715881 -0.24180181324481964 -0.2619714140892029 0.3124222457408905 0.7630167007446289 -0.11626031249761581 
받 -0.27857309579849243 -0.5448892712593079 -0.21846406161785126 0.04290376231074333 -0.21788454055786133 -0.8792576193809509 0.016109904274344444 -0.3172503411769867 0.6965259909629822 -0.37485799193382263 -0.029127486050128937 -0.731248140335083 0.13707374036312103 -0.14181478321552277 -0.15973694622516632 -0.2789352536201477 0.3118058741092682 0.47962746024131775 -0.1276019662618637 -0.2486276477575302 0.31972986459732056 0.6817242503166199 0.25492236018180847 -0.27062371373176575 0.750271737575531 -0.34350988268852234 -0.4152149260044098 0.8353089690208435 -0.4787830114364624 0.9332738518714905 -0.25525546073913574 0.3414109945297241 0.9367940425872803 -0.5765991806983948 -0.15508536994457245 0.18702200055122375 -0.6182847023010254 -0.1741756647825241 0.21890543401241302 0.07224811613559723 0.4452807903289795 -0.5460546612739563 0.04458480700850487 0.46511200070381165 0.14870959520339966 -0.27801263332366943 -0.4096577763557434 0.3875512480735779 0.5179501175880432 0.4651073217391968 
간 0.14788949489593506 0.3722687065601349 -0.4492529332637787 -0.07361043244600296 -0.04826107248663902 -0.17788046598434448 0.13623085618019104 0.307343453168869 -1.0181039571762085 -0.44670745730400085 0.5825575590133667 -1.0696759223937988 0.7458939552307129 0.008227813057601452 0.43873193860054016 -0.007108383346349001 1.2617089748382568 -0.4674946665763855 -0.9721952080726624 -0.27192190289497375 0.4984591007232666 -0.010856132954359055 0.33225229382514954 0.31463906168937683 0.45236989855766296 0.35343319177627563 -0.4735795557498932 0.5337218642234802 0.5175842642784119 0.6960879564285278 0.6687036752700806 -0.08793380111455917 0.06462181359529495 -0.16910818219184875 -0.0378124937415123 -0.3954971730709076 -0.06120365113019943 0.45821043848991394 0.5917134284973145 1.6397963762283325 0.3959988057613373 -0.8823325634002686 0.745678186416626 -0.08298882097005844 0.6946805119514465 -0.9515780806541443 -0.6082930564880371 -0.033048152923583984 0.2718091905117035 -0.41912975907325745 
방 0.6030397415161133 -0.31308305263519287 -0.5684604048728943 -0.12488282471895218 0.04614529386162758 -0.06916332244873047 0.5102804899215698 0.5024638772010803 0.09145945310592651 -0.480246365070343 -0.05900740996003151 0.18695411086082458 0.03159964457154274 0.5579320788383484 -0.021965177729725838 0.34375643730163574 0.015255136415362358 0.24494138360023499 0.25498685240745544 -0.4508006274700165 0.16123069822788239 0.14199140667915344 0.8322850465774536 -0.08093234896659851 0.5582004189491272 -0.0733218565583229 0.2902386784553528 0.2917064428329468 0.23992395401000977 0.4296322464942932 -0.13250505924224854 -0.519679844379425 0.4362633526325226 -0.990502655506134 0.22921685874462128 0.03318034112453461 0.45695289969444275 -0.290309876203537 0.3483680188655853 -0.3560386598110199 0.8931039571762085 -0.4499630331993103 -0.04945451021194458 -0.0986802726984024 0.7104886770248413 -0.24866272509098053 -0.024127721786499023 -0.37708017230033875 -0.21465472877025604 0.450950562953949 
탁 -0.06568016111850739 -0.21829043328762054 0.4427211284637451 0.6482367515563965 0.49956217408180237 -0.40663596987724304 0.8180115222930908 0.562315046787262 -0.4595458209514618 -0.07851994782686234 -0.21622511744499207 0.06887505203485489 -0.2667645215988159 0.17728741466999054 -0.1353352814912796 0.41361257433891296 0.7581250071525574 0.8466768860816956 -0.46939659118652344 0.04427070543169975 0.16281265020370483 0.12512244284152985 0.6007679104804993 0.18890587985515594 0.042515985667705536 -0.7508814334869385 -0.33006271719932556 -0.01960179954767227 -0.06222982704639435 -0.6723169684410095 0.47779396176338196 -0.3607134521007538 -0.18863779306411743 0.1942795217037201 0.5523219704627991 -0.2937198877334595 -0.013818369247019291 -0.10227324813604355 0.07830218970775604 -0.055032551288604736 -0.3250030279159546 0.18313002586364746 0.48812171816825867 -0.491344153881073 -0.1686173677444458 -0.006009948439896107 0.14498423039913177 -0.01628606580197811 0.2902476489543915 0.29792261123657227 
락 0.343073308467865 -0.5820651054382324 -0.19111274182796478 0.36532822251319885 -0.3285077214241028 -0.2678111493587494 0.7321029305458069 0.843591034412384 -0.24959902465343475 -0.9231525659561157 -0.3094930052757263 -0.3541445732116699 0.18061381578445435 0.37132710218429565 0.022685959935188293 0.04019690677523613 0.6820090413093567 0.3626808822154999 0.24608367681503296 -0.25784313678741455 1.0007853507995605 0.2305581122636795 0.028180373832583427 -0.2995205223560333 0.3730506896972656 0.053756289184093475 0.36924293637275696 0.6618531346321106 -0.14746156334877014 -0.19045965373516083 -0.021507803350687027 -0.4537750482559204 0.3337607979774475 -0.7215722799301147 -0.0839485377073288 -0.402360200881958 -0.666555643081665 0.09975587576627731 0.35693371295928955 0.5200652480125427 -0.4711490273475647 -0.7650584578514099 0.5800542831420898 0.5035948753356934 0.9109318256378174 0.07943937927484512 0.18803440034389496 0.2165069729089737 0.5256613492965698 0.24699030816555023 
사 0.3542030453681946 0.20327144861221313 -0.3377517759799957 -0.06383096426725388 -0.09472448378801346 -0.37029170989990234 0.36886492371559143 0.6961191296577454 0.25892266631126404 -0.45268186926841736 -0.2729414701461792 0.0836438313126564 -0.13682854175567627 0.7134498953819275 -0.1858012080192566 0.5120619535446167 0.23870748281478882 0.2793109714984894 0.09678997844457626 -0.4767151176929474 0.8372208476066589 0.2675436735153198 -0.019841663539409637 -0.03918144106864929 0.6908411979675293 -0.09216427803039551 -0.09529781341552734 0.09986121207475662 -0.32746854424476624 -0.13220436871051788 0.2948625683784485 -0.7677924633026123 0.7761614918708801 -1.1599639654159546 0.24008142948150635 0.33993756771087646 0.2731161415576935 0.3107062876224518 0.2875464856624603 -0.1926656812429428 -0.07184608280658722 -0.643875777721405 0.41243499517440796 0.03578684851527214 0.31073275208473206 0.3187023401260376 -0.057506103068590164 -0.500199556350708 0.9004829525947571 0.3852284848690033 
처 0.16727474331855774 -0.7188256978988647 -0.39599913358688354 0.20139054954051971 -0.6338649988174438 -0.22522307932376862 0.5356016755104065 0.8380821347236633 -0.047843918204307556 -1.0543376207351685 -0.3124377727508545 -0.5530939102172852 0.34410738945007324 0.20212607085704803 -0.12688305974006653 -0.07219052314758301 0.7867023348808289 0.3669995963573456 0.27760258316993713 -0.07906367629766464 1.275345802307129 0.3206029236316681 -0.1624385565519333 0.01570139080286026 0.5226598381996155 0.20456674695014954 0.31419703364372253 0.7072327136993408 -0.10045779496431351 -0.0747130811214447 -0.13687455654144287 -0.542650580406189 0.5084773898124695 -1.1147944927215576 -0.26290974020957947 -0.2915789484977722 -0.49514880776405334 0.07764502614736557 0.4045625925064087 1.0269813537597656 -0.24666789174079895 -0.9591204524040222 0.6525996327400208 0.5045244097709656 1.1247175931930542 -0.08438972383737564 0.2008751779794693 0.10740351676940918 0.6949792504310608 0.25799474120140076 
저 -0.35026058554649353 -0.05088184028863907 -0.1506151705980301 0.4579375088214874 0.33515501022338867 -0.25323644280433655 0.36121630668640137 0.2670913338661194 0.5887094736099243 -0.47119712829589844 0.11227253079414368 -0.07516390085220337 -0.1940130740404129 0.29889336228370667 -0.46470901370048523 0.40844565629959106 0.07562560588121414 0.442615270614624 -0.063083216547966 -0.0678408294916153 1.0472102165222168 0.32613110542297363 0.6808007955551147 -0.08107185363769531 0.5998385548591614 0.6829617023468018 -0.5215126276016235 -0.19091199338436127 -0.3242383301258087 0.07496175915002823 0.21679265797138214 -0.1497044861316681 -0.16490334272384644 -0.06640957295894623 0.3484930098056793 -0.1459025889635086 -0.39271971583366394 0.09523966908454895 0.042787373065948486 -0.3100692927837372 -0.28722086548805237 -0.17026473581790924 0.19536873698234558 0.1336071491241455 -0.15143337845802307 0.06033433601260185 -0.6194815039634705 -0.25533154606819153 0.34093591570854187 0.48387661576271057 
지 0.05077788606286049 0.333212286233902 0.3774558901786804 -0.0698717013001442 -0.5150645971298218 -0.7767485976219177 0.3955624997615814 0.14104293286800385 -0.08845033496618271 -0.524666428565979 0.10448000580072403 -0.5522026419639587 0.6257349848747253 0.059468355029821396 -0.5983000993728638 -0.6083864569664001 -0.11412638425827026 0.09842544049024582 0.004755641799420118 -0.05448080599308014 0.9502738118171692 0.5705232620239258 0.507844865322113 -0.36418038606643677 -0.24334707856178284 -0.20373676717281342 -0.3801818788051605 0.8487662672996521 -0.2114652842283249 0.22477294504642487 -0.17828881740570068 0.2073115110397339 -0.1272880733013153 -0.4386250376701355 0.3898211121559143 -0.00016729779599700123 -0.8444116711616516 -0.0546741746366024 -0.039473120123147964 -0.08103059232234955 0.06612584739923477 -0.3316824436187744 0.31098735332489014 -0.2706248462200165 0.6797369718551636 -0.03975220024585724 0.19141672551631927 0.09446793794631958 0.433939129114151 -0.050752438604831696 
얼 0.0638265535235405 0.3773193657398224 -0.7939382195472717 -0.04435526952147484 -0.49886682629585266 -0.6750785112380981 -0.23342278599739075 0.5169582962989807 -0.1782616227865219 0.1606888473033905 -0.2653288245201111 -0.34379613399505615 0.8133741617202759 0.2797725200653076 -0.477070689201355 0.44461867213249207 0.495872437953949 -0.542316198348999 -0.629249632358551 -1.0121084451675415 0.13431452214717865 0.9835554957389832 1.2024831771850586 -0.26452696323394775 -0.071652851998806 0.16021332144737244 -0.7163447141647339 -0.28707677125930786 -0.6788358092308044 0.6045175790786743 0.7034100890159607 0.16835130751132965 -0.0035347696393728256 0.04668063670396805 -0.2966950237751007 0.0850827619433403 0.48441219329833984 -0.17500349879264832 -0.2790400981903076 0.056452613323926926 0.4088664650917053 -0.029876520857214928 0.06857452541589737 -0.2645602524280548 0.5077704787254333 -0.27633070945739746 0.11960609257221222 0.08127012848854065 -0.04344106465578079 -0.13373610377311707 
법 0.157993882894516 0.2466653287410736 -0.04620036855340004 0.17179341614246368 -0.6326568126678467 -0.1954958289861679 0.7214078307151794 0.1921255886554718 -0.3639945387840271 0.14865827560424805 -0.15891365706920624 -0.08203265070915222 -0.28223636746406555 0.07430962473154068 -0.24987244606018066 0.37704217433929443 0.18775567412376404 1.0059068202972412 -0.33276039361953735 -0.48757800459861755 -0.07526063919067383 0.021791182458400726 0.6981979608535767 0.32641762495040894 0.18185119330883026 -0.06039050593972206 0.05296073108911514 0.5018954873085022 0.046232882887125015 0.61537104845047 -0.28359901905059814 -0.4125185012817383 0.2872416079044342 -1.077039122581482 0.26040810346603394 0.3343140780925751 0.7101466655731201 -0.303133487701416 -0.4556177854537964 -0.05217410624027252 0.6414687037467957 -0.1397673487663269 -0.02964414283633232 -0.08077867329120636 0.6139868497848511 -0.8077384829521179 0.024856997653841972 0.03370840102434158 -0.1417851448059082 0.5951428413391113 
희 -0.1310623586177826 -0.14590445160865784 -0.5559189319610596 0.5246180891990662 0.3238115906715393 -0.3480070233345032 0.5000445246696472 0.015551100485026836 0.5030781626701355 -0.5005391836166382 0.03823445364832878 -0.41605642437934875 -0.01936640776693821 0.30443525314331055 -0.5750889182090759 -0.13884657621383667 0.1955769807100296 0.4712482988834381 -0.15245018899440765 0.1889556497335434 1.017034888267517 0.2526121735572815 0.6725971102714539 -0.06617899984121323 0.8843727707862854 0.2530680298805237 -0.44124922156333923 -0.007583975791931152 -0.28779906034469604 0.16526322066783905 0.01321354042738676 -0.24387402832508087 0.09158486872911453 -0.20976141095161438 0.1302347183227539 -0.3269168734550476 -0.773568332195282 -0.02489427849650383 0.13528446853160858 -0.4205752909183502 -0.6210902333259583 -0.3277931213378906 0.20573149621486664 0.3055109679698944 0.03022751212120056 -0.13563424348831177 -0.3591139018535614 0.043163903057575226 0.369484007358551 0.6760814189910889 
장 0.3593128025531769 -0.5846505761146545 -0.1392778754234314 0.11227315664291382 0.134876549243927 -0.027020065113902092 0.8061190843582153 0.11837771534919739 0.7355968356132507 -0.0739862248301506 -0.03571595996618271 -0.24579325318336487 -0.1042124480009079 0.11703798174858093 -0.28031715750694275 -0.02498830109834671 -0.09255249798297882 0.7590751051902771 -0.4158412516117096 0.47811904549598694 0.3310723602771759 -0.11902067065238953 0.640689492225647 -0.13535645604133606 0.5632169842720032 0.49712899327278137 -0.6203210353851318 -0.4079446494579315 -0.4886641502380371 0.3875020444393158 0.02756057120859623 -0.19365769624710083 0.45261675119400024 -0.38391220569610596 -0.04840432107448578 -0.38011088967323303 0.10764609277248383 -0.06651034951210022 -0.154928058385849 -0.14417783915996552 -0.07015207409858704 -0.10567063838243484 0.3413953185081482 0.4325832426548004 -0.0009473522077314556 -0.14914631843566895 0.0504799485206604 -0.5896506905555725 0.5135998129844666 0.37447330355644226 
없 0.14974573254585266 0.2560095489025116 -0.7855079174041748 -0.3674905300140381 -0.6115452647209167 -0.6427744030952454 -0.24095721542835236 0.4784094989299774 -0.3094196319580078 -0.004433946684002876 0.058880195021629333 -0.45415428280830383 0.9518328309059143 0.12270008027553558 -0.3197866976261139 0.5202305316925049 0.655998945236206 -0.3878410756587982 -1.0827322006225586 -1.0749893188476562 -0.07627379149198532 0.9368133544921875 0.9684076309204102 0.030745891854166985 0.1650373786687851 0.4405367076396942 -0.4317319691181183 -0.3407992124557495 -0.6281183362007141 0.817613959312439 0.5999454855918884 0.27169251441955566 0.0518483966588974 -0.09374311566352844 -0.1314384937286377 0.3952520191669464 0.6626745462417603 -0.04293067380785942 -0.20017783343791962 0.04915393888950348 0.538749635219574 -0.3136158287525177 0.09868625551462173 -0.20526611804962158 0.6493200659751892 -0.5386900305747986 0.30556076765060425 0.16833651065826416 -0.07596859335899353 -0.1967362016439438 
매 -0.03599770367145538 -0.4807799160480499 -0.7199455499649048 0.04248438775539398 0.1822832226753235 -0.07922744005918503 0.42246192693710327 0.14556705951690674 0.5452045798301697 -0.14041964709758759 -0.12230218201875687 -0.5044716596603394 0.058496974408626556 0.25597450137138367 -0.635709285736084 0.20905978977680206 -0.08984698355197906 0.28068846464157104 -0.32018032670021057 0.16744552552700043 0.7258288264274597 0.03911581262946129 0.6461175084114075 -0.12659859657287598 0.7666925191879272 -0.0383065864443779 -0.4274098873138428 -0.417855441570282 -0.5288562178611755 0.3672293722629547 -0.043696191161870956 0.15954992175102234 0.31245726346969604 -0.05919990316033363 -0.01716512255370617 -0.005555936135351658 0.32906749844551086 0.2759051024913788 0.0020672865211963654 -0.48753443360328674 0.0194478090852499 -0.025343284010887146 0.3025438189506531 -0.10970626026391983 0.03892650082707405 -0.05783049017190933 -0.16214106976985931 0.0491286963224411 0.2818710207939148 0.5366066098213196 
보 0.1891014128923416 0.30613550543785095 -0.1861625462770462 -0.36636242270469666 -0.1102219820022583 -0.7506839632987976 0.29660728573799133 0.006691854912787676 0.04656218737363815 -0.11134500801563263 0.1613367199897766 -0.5423439145088196 -0.2187827080488205 0.17930690944194794 -0.12028652429580688 -0.15147261321544647 0.04771855100989342 0.6268103122711182 -0.507393479347229 0.10118953883647919 0.2608431577682495 0.17581167817115784 0.5594860315322876 -0.060528095811605453 0.18004104495048523 -0.049151647835969925 -0.3981032371520996 0.7007919549942017 0.16450552642345428 0.8682904839515686 -0.6104874014854431 -0.06259723007678986 0.41329118609428406 -0.685411810874939 0.3270717263221741 0.011121337302029133 0.07896088063716888 0.12251181155443192 -0.17488865554332733 -0.23857320845127106 0.9212490916252136 -0.38457661867141724 0.19809997081756592 0.13070116937160492 -0.22312404215335846 -0.5900258421897888 -0.3257862627506256 0.021657587960362434 0.029915841296315193 0.48583561182022095 
구 -0.512259304523468 -0.12248411774635315 -1.0637357234954834 -0.4313943088054657 -0.21482625603675842 -0.9306627511978149 -0.07847175002098083 -0.2520330250263214 -0.4490087032318115 0.161504864692688 -0.27930429577827454 -0.9759007692337036 -0.32008281350135803 0.33395054936408997 -0.19723068177700043 -0.026332447305321693 0.05544253811240196 0.2490089386701584 -0.5731461644172668 -0.34493857622146606 0.2814415693283081 1.084160566329956 0.8251582384109497 -0.21221743524074554 -0.03099723346531391 -0.057634372264146805 -0.427519291639328 0.029577435925602913 -0.05959049612283707 -0.2799389362335205 -0.05490940809249878 -0.42384257912635803 0.37998512387275696 0.10615658015012741 -0.22266706824302673 -0.0522766187787056 0.5322676301002502 -0.14935630559921265 -0.4363485276699066 0.04369095712900162 0.6138055920600891 0.1855582445859909 -0.13659313321113586 0.20448234677314758 0.3851391673088074 -0.06626617908477783 -0.23380792140960693 -0.21011151373386383 0.187440425157547 0.4573606848716736 
안 -0.30540552735328674 -0.05735524743795395 -0.7713998556137085 0.10542463511228561 0.5322518944740295 -0.4232777953147888 -0.13402076065540314 0.041514698415994644 0.17078827321529388 -0.2541130483150482 -0.27387672662734985 -0.6629086136817932 0.026831530034542084 0.49907153844833374 -0.7402273416519165 0.07499922811985016 0.11344944685697556 -0.08236439526081085 -0.7773719429969788 0.14509211480617523 0.3655300438404083 -0.058964695781469345 0.8837023973464966 0.03431230038404465 0.7180033326148987 -0.1403166651725769 -0.6974680423736572 -0.13775409758090973 -0.8211696743965149 0.21582035720348358 0.039065662771463394 -0.20312364399433136 0.018050726503133774 0.08161056041717529 0.1070094183087349 0.09544932097196579 0.5851463079452515 -0.23711837828159332 -0.09912484884262085 -0.330532044172287 -0.4094354808330536 -0.458491712808609 0.2505640387535095 -0.31595730781555176 0.058789853006601334 -0.3781909644603729 -0.5432031750679016 0.11654576659202576 0.19519869983196259 0.5312761664390564 
요 0.7465161085128784 -0.046936508268117905 -0.7513844966888428 -0.231297567486763 0.13912805914878845 -0.016144607216119766 0.6004593968391418 0.4982090890407562 -0.12038132548332214 -0.2848934829235077 -0.0705350711941719 0.2047160267829895 0.0695539116859436 0.7617614269256592 0.2821684181690216 0.49989789724349976 0.16233839094638824 0.08934831619262695 0.16633723676204681 -0.14781005680561066 0.47471868991851807 0.12164716422557831 0.8327404856681824 -0.19256776571273804 0.7148239016532898 0.026412641629576683 0.33712294697761536 0.21131008863449097 -0.09138159453868866 0.21980442106723785 -0.24767336249351501 -0.4587552845478058 0.32685524225234985 -0.9901203513145447 -0.2862328290939331 0.2844209372997284 0.8988530039787292 0.35861122608184814 0.33967941999435425 0.15118514001369476 0.7935739755630493 -0.32382357120513916 -0.10082913190126419 0.10035733878612518 0.8616488575935364 0.11047390103340149 -0.3024426996707916 -0.7572054266929626 0.06392534077167511 0.16394907236099243 
여 -0.46229591965675354 0.1637464165687561 -0.10667924582958221 0.5216494202613831 -0.15934009850025177 -0.17864573001861572 0.6061043739318848 -0.0850309208035469 -0.08718550205230713 0.18768428266048431 0.17312420904636383 -0.11905044317245483 0.4534376859664917 -0.3996939957141876 0.13002415001392365 -0.15517695248126984 0.14847829937934875 0.9914308190345764 -1.0888564586639404 -0.2566961944103241 -0.3901083767414093 0.46195104718208313 0.7697301506996155 -0.14433494210243225 0.3640294075012207 -0.3095886707305908 0.08255532383918762 0.6012715697288513 -0.002854245249181986 -0.2155883014202118 0.4225778579711914 -0.4531875252723694 -0.015476332977414131 0.3847239315509796 0.19672361016273499 -0.89698326587677 -0.05851343274116516 -0.7645407319068909 0.7593294382095337 1.0622236728668213 -0.28123390674591064 0.23168601095676422 0.35731497406959534 -0.22843173146247864 1.016002893447876 -0.027049196884036064 0.12991094589233398 0.13110928237438202 1.1190937757492065 -0.4350181818008423 
화 0.46588751673698425 -0.276885062456131 -0.6421725749969482 0.08893115818500519 0.22611911594867706 -0.09018524736166 0.35389503836631775 0.4828929007053375 0.23399701714515686 -0.6836678385734558 -0.4019842743873596 -0.11340730637311935 0.510811448097229 1.0148427486419678 -0.007177342660725117 0.3281097710132599 0.5461545586585999 0.11914607137441635 -0.05964590609073639 -0.2068830281496048 0.6819169521331787 0.1163644939661026 0.133128359913826 -0.25998708605766296 0.6827371716499329 -0.09609651565551758 0.0016142900567501783 0.056705523282289505 -0.1673528552055359 -0.44634151458740234 0.7973094582557678 -0.8097227215766907 0.32043716311454773 -0.8780685663223267 0.11063869297504425 -0.3894699513912201 -0.0008423882536590099 0.48171529173851013 0.6950210928916931 0.2166251391172409 -0.23205390572547913 -0.7704783082008362 0.938707709312439 0.1702580600976944 0.5047018527984619 0.11312425881624222 0.17383739352226257 -0.4772278070449829 0.8309876322746277 0.11144846677780151 
목 -0.4225277304649353 0.4315890967845917 0.2896466851234436 0.0898631140589714 -0.4500139355659485 -0.9466795325279236 0.6458353996276855 0.04365365579724312 -0.44203466176986694 0.15597647428512573 0.23742061853408813 -0.20145399868488312 0.5064083933830261 -0.3328319191932678 -0.17728540301322937 -0.6001062989234924 -0.13045719265937805 0.6746423840522766 -0.5716574192047119 -0.5526243448257446 0.51548171043396 0.5248998403549194 0.517963171005249 -0.2498701512813568 -0.39776140451431274 -0.34632667899131775 -0.08935896307229996 0.6632336378097534 -0.21577095985412598 -0.20945632457733154 0.15238165855407715 0.14710387587547302 -0.12500721216201782 0.03287182375788689 0.16024896502494812 -0.07142575830221176 -0.29534652829170227 -0.06475121527910233 0.17372094094753265 0.46559277176856995 0.2711544632911682 0.02679482288658619 0.1379990428686142 0.04667751491069794 1.1489193439483643 0.09321165829896927 0.21766160428524017 -0.1568017154932022 1.0404767990112305 -0.4423268735408783 
량 -0.8120020031929016 -0.50811767578125 -0.6764704585075378 0.4490930140018463 -0.07433930784463882 -0.5229910612106323 0.33626511693000793 -0.019857028499245644 0.4718339443206787 -0.20258073508739471 -0.020713793113827705 -0.3137967586517334 -0.19792737066745758 -0.1065416932106018 0.002727184444665909 0.01950337551534176 0.32753390073776245 1.055931568145752 -0.8056511878967285 -0.5345196723937988 0.27640601992607117 0.5566515922546387 0.6421290636062622 0.09360336512327194 0.6179975271224976 0.1582537293434143 -0.332362562417984 0.21458405256271362 -0.5539904832839966 -0.08183673769235611 0.705271303653717 -0.2571837604045868 0.43680256605148315 0.29980987310409546 0.34448960423469543 -0.567435622215271 -0.568859875202179 -0.5332965850830078 0.19061413407325745 0.057967185974121094 -0.4777698218822479 -0.1945706009864807 0.14196375012397766 0.27328240871429443 -0.2546301484107971 -0.5204116106033325 -0.21815848350524902 0.3519156277179718 0.6629489064216614 0.5546802878379822 
경 -0.3689926564693451 -0.249746635556221 -0.7914133667945862 0.40998998284339905 0.34743860363960266 -0.09580373764038086 0.36965319514274597 -0.06794087588787079 0.04689708724617958 -0.16518455743789673 -0.07932249456644058 -0.7425009608268738 -0.10664769262075424 0.512181282043457 -0.37788864970207214 -0.04022372514009476 0.22437311708927155 0.31347060203552246 -0.623897910118103 0.23387175798416138 0.4530866742134094 -0.13792096078395844 0.8710325360298157 0.1865672916173935 1.0426523685455322 -0.19333794713020325 -0.365205854177475 0.422184020280838 -0.6088085174560547 0.020536411553621292 -0.0552399568259716 -0.4896976351737976 0.07317372411489487 -0.3441412150859833 0.0405060239136219 -0.3672431707382202 0.08320257812738419 -0.4528810679912567 0.10322821140289307 -0.059654079377651215 -0.6403094530105591 -0.6672654151916504 0.19515162706375122 0.17662818729877472 0.19094286859035492 -0.4400440752506256 -0.8573453426361084 -0.3225383758544922 0.26919296383857727 0.6220108866691589 
불 -0.4929382801055908 -0.3395617604255676 -0.4223550260066986 -0.16292734444141388 -0.5214940905570984 -0.42019784450531006 0.19059643149375916 0.5999829173088074 -0.8002824187278748 0.3826011121273041 0.18557992577552795 -0.9055776000022888 0.28704312443733215 0.32003769278526306 0.04306325688958168 0.5334999561309814 0.2203214168548584 -0.006053421180695295 -0.7799507975578308 -0.8056893348693848 -0.0007832244737073779 0.6254880428314209 0.8032873272895813 -0.3858627676963806 -0.29628103971481323 -0.27980896830558777 -0.03827498480677605 0.06791599094867706 0.00965037103742361 -0.7383644580841064 -0.18548063933849335 -0.22530187666416168 0.12180474400520325 0.2630614936351776 -0.4396883249282837 -0.36890068650245667 0.5267890095710754 -0.5533580183982849 -0.1361725777387619 0.4465221166610718 0.08967582136392593 0.5083410143852234 -0.15460564196109772 0.060914140194654465 0.7723437547683716 -0.13178637623786926 -0.2109832763671875 -0.036274176090955734 -0.3446871340274811 -0.10173460096120834 
전 0.33828169107437134 -0.3771500289440155 -0.30635595321655273 0.18242673575878143 0.33821967244148254 -0.21127738058567047 0.24289022386074066 0.6244087815284729 0.41997259855270386 -0.49256619811058044 -0.44437864422798157 -0.16459821164608002 0.06366882473230362 0.9590261578559875 -0.04007604718208313 0.6146924495697021 0.3312603235244751 0.15956634283065796 0.10966979712247849 -0.5181635022163391 0.7347800731658936 0.28589344024658203 0.3049079179763794 -0.2597137689590454 0.41543492674827576 0.04651973396539688 -0.18491783738136292 -0.2589126229286194 -0.23151609301567078 -0.5826125144958496 0.7128551602363586 -0.6051242351531982 0.35232841968536377 -0.5446979403495789 0.2216194123029709 -0.21133966743946075 0.012019071727991104 0.400973916053772 0.42202073335647583 -0.143242746591568 -0.1677771508693695 -0.32187050580978394 0.5608640313148499 0.1759287267923355 0.17023678123950958 0.3025943338871002 0.006145072169601917 -0.2567119896411896 0.6631238460540771 0.4124489426612854 
소 0.25416886806488037 -0.1924808770418167 -0.7601826786994934 -0.06784965097904205 -0.4458876848220825 -0.4720418453216553 0.2348189651966095 0.6808838844299316 -0.07708578556776047 -0.5262423753738403 -0.03741566836833954 -0.45551982522010803 1.1096500158309937 -0.057968564331531525 -0.816390872001648 0.3964068591594696 0.36964666843414307 -0.5201343894004822 -0.4149424731731415 -0.2617965340614319 0.1936877816915512 0.8356521129608154 0.4092854857444763 -0.34640902280807495 0.2100624293088913 -0.2445039451122284 -0.37058010697364807 -0.41332653164863586 -0.39436596632003784 0.060345813632011414 0.22108891606330872 -0.03092127852141857 -0.014383644796907902 0.36035555601119995 -0.37646543979644775 -0.11100070178508759 0.3771251440048218 -0.37378793954849243 -0.09816771745681763 0.3708445429801941 -0.01261954102665186 0.046874407678842545 0.16883967816829681 -0.18147724866867065 1.2288838624954224 0.007902977056801319 0.47662535309791565 0.054716985672712326 0.10425091534852982 -0.34305810928344727 
급 0.20064853131771088 -0.1256352663040161 -0.5872691869735718 -0.03412019833922386 -0.4621022343635559 -0.39942917227745056 0.28331121802330017 0.6653708219528198 0.06287175416946411 -0.6340939998626709 0.02306770160794258 -0.2596408724784851 1.0184911489486694 -0.1653103232383728 -0.8425067067146301 0.45685988664627075 0.3321118950843811 -0.3860064148902893 -0.2594276964664459 -0.2778935730457306 0.36856287717819214 0.8321501016616821 0.45320916175842285 -0.2397705614566803 0.34942424297332764 -0.0685693696141243 -0.2655230462551117 -0.5279178023338318 -0.316050261259079 0.010245026089251041 0.305832177400589 -0.1637606918811798 -0.05806746333837509 0.41622182726860046 -0.40414130687713623 -0.09153880178928375 0.33484986424446106 -0.26634711027145386 -0.03992479294538498 0.39399752020835876 -0.07235950231552124 0.1783345490694046 0.22297246754169464 -0.22237154841423035 1.1860196590423584 0.11754302680492401 0.40613874793052673 0.2558740973472595 0.26128795742988586 -0.2929990291595459 
령 -0.408849835395813 -0.07962507009506226 0.13905222713947296 0.5057744979858398 0.0967477560043335 -0.45802316069602966 0.28151610493659973 0.060232631862163544 -0.14718736708164215 -0.10213596373796463 0.1685522198677063 -0.05414101481437683 -0.11751683801412582 -0.26457127928733826 -0.11461550742387772 0.1036151796579361 0.8283458948135376 0.793769896030426 -0.8703370690345764 -0.45211273431777954 0.2696179747581482 0.20412160456180573 0.4317547678947449 0.17131641507148743 -0.16608652472496033 0.15586069226264954 -0.36031320691108704 0.35717418789863586 0.007024432998150587 0.020434468984603882 0.5457892417907715 -0.17755791544914246 0.15232928097248077 0.4387372136116028 0.2964929938316345 -0.44979405403137207 -0.4744320213794708 -0.16944701969623566 0.016060983762145042 0.2043050229549408 -0.21685150265693665 -0.047528963536024094 0.394063264131546 0.00878206081688404 -0.37168607115745544 -0.6059062480926514 0.0091102235019207 0.41325274109840393 0.7236974239349365 0.340157151222229 
공 0.1879187822341919 -0.19826796650886536 -0.5160791277885437 -0.025936368852853775 -0.4098011553287506 -0.3375975489616394 0.3501584827899933 0.6386690735816956 0.17081652581691742 -0.6206211447715759 -0.020271027460694313 -0.22511756420135498 0.9863178133964539 -0.14145565032958984 -0.8844627141952515 0.45892590284347534 0.30461937189102173 -0.3520492911338806 -0.3067544102668762 -0.24854588508605957 0.404786616563797 0.8526894450187683 0.44185671210289 -0.25976502895355225 0.38155150413513184 -0.011937144212424755 -0.24095390737056732 -0.5747045874595642 -0.34456756711006165 0.04829104244709015 0.28782370686531067 -0.08807004243135452 -0.1244625598192215 0.3911873996257782 -0.34832969307899475 -0.024428008124232292 0.22326098382472992 -0.22372202575206757 0.07914864271879196 0.38631221652030945 -0.11215021461248398 0.15987424552440643 0.2181752473115921 -0.2774539291858673 1.1007335186004639 0.0746380165219307 0.48887982964515686 0.23627319931983948 0.3469280004501343 -0.32798054814338684 
나 0.16478241980075836 0.10848822444677353 -0.7884151339530945 -0.1627686321735382 -0.383198082447052 -0.5496476888656616 -0.25482648611068726 0.6073915362358093 0.042952701449394226 -0.06625526398420334 -0.21173936128616333 -0.42429816722869873 0.7558488249778748 0.23916763067245483 -0.4135292172431946 0.5319976806640625 0.46241873502731323 -0.5802361965179443 -0.7500579357147217 -0.9780020713806152 0.24842163920402527 0.7759579420089722 1.1012494564056396 -0.00499299168586731 0.19035208225250244 0.40580177307128906 -0.6947458982467651 -0.5350748896598816 -0.7220203876495361 0.9328492283821106 0.6841114163398743 0.16572389006614685 0.04513578861951828 -0.27782854437828064 -0.17836104333400726 0.3350849151611328 0.7282760143280029 0.05008430406451225 -0.17810234427452087 -0.15587569773197174 0.387983113527298 -0.2597835958003998 0.011314867995679379 -0.16078902781009674 0.41101136803627014 -0.5926361680030823 0.06963229179382324 -0.0913073793053627 0.05975775048136711 0.17460179328918457 
통 0.6992455124855042 0.07174103707075119 -0.32051634788513184 -0.13669916987419128 0.5447348356246948 -0.2442697137594223 0.29908302426338196 0.5829357504844666 0.22543224692344666 -0.7460706830024719 -0.10481131076812744 -0.2785671055316925 0.35348889231681824 0.668789803981781 0.1594749093055725 0.17693720757961273 0.674920916557312 0.008404419757425785 -0.08174610137939453 0.026215191930532455 0.6541889905929565 -0.23497162759304047 0.18994903564453125 -0.11843014508485794 0.27694231271743774 -0.2388942837715149 -0.1806110143661499 0.1030430719256401 0.14456060528755188 0.07380766421556473 0.10932726413011551 -0.22969484329223633 0.13762500882148743 -0.7428327798843384 0.21226996183395386 -0.24913810193538666 0.1941366046667099 0.6025196313858032 0.5395761728286743 0.33594411611557007 0.16499418020248413 -0.7624979615211487 0.8304517269134521 0.11839503049850464 0.2908569872379303 -0.05010724812746048 -0.07739060372114182 -0.16295142471790314 0.5911716222763062 0.05309369042515755 
의 -0.21560856699943542 -0.10258854925632477 -0.8065645694732666 0.358169823884964 -0.006330356001853943 0.01983737200498581 0.5315272808074951 0.0336158461868763 -0.5960875749588013 0.4789770543575287 0.1371343433856964 -0.5648794174194336 0.34395095705986023 0.429284930229187 -0.47263845801353455 -0.13447697460651398 0.23444251716136932 -0.196331188082695 -0.6344497203826904 0.21708360314369202 0.05039720982313156 -0.13602955639362335 0.9959205985069275 -0.2144278585910797 0.39847293496131897 -0.13443203270435333 -0.5193989872932434 0.5040632486343384 -0.5875065326690674 0.01645161584019661 0.008974959142506123 -0.33264487981796265 0.17173533141613007 -0.1465095579624176 -0.28959715366363525 -0.3385063707828522 0.3452306091785431 -0.5495438575744629 -0.012754610739648342 -0.2634599506855011 -0.2744867205619812 -0.1944107860326767 0.046596959233284 0.06790342926979065 0.21293148398399353 -0.313079297542572 -0.6538798213005066 -0.6991683840751648 0.04727085679769516 0.4863315522670746 
짜 -0.4511668384075165 -0.05429494008421898 0.2528934180736542 0.308132141828537 -0.3483343720436096 -0.032420650124549866 0.4012203514575958 0.21022649109363556 -0.941692590713501 -0.042628202587366104 0.3931358754634857 -0.09664656221866608 -0.06221376731991768 0.06573238968849182 0.857769787311554 0.6087709665298462 0.6914474368095398 0.383851557970047 -0.3559779226779938 -1.0196577310562134 0.5189142227172852 0.3494243621826172 0.4920874536037445 0.19039694964885712 0.2957161068916321 0.6755617260932922 0.2594206631183624 0.21048058569431305 0.11692730337381363 -0.3094608187675476 0.17199409008026123 -0.34025394916534424 0.10508029162883759 -0.5076483488082886 -0.1746096909046173 -0.22786939144134521 0.21011283993721008 0.3430466055870056 0.053713295608758926 0.2711412012577057 0.20480267703533173 0.31050536036491394 -0.16386617720127106 0.1058666780591011 0.5013158321380615 -0.163756862282753 -0.512656033039093 0.0727560967206955 -0.03835943713784218 0.03929882496595383 
날 -0.4108171761035919 -0.02757657691836357 0.24688003957271576 0.28990527987480164 -0.2922501564025879 -0.01640714704990387 0.351036012172699 0.23120398819446564 -0.8361040949821472 -0.06314479559659958 0.3407341241836548 -0.00558739947155118 0.02994953654706478 0.17650443315505981 0.8504555225372314 0.6592615842819214 0.6632785201072693 0.3895104229450226 -0.2998283803462982 -0.9589232802391052 0.6383640170097351 0.2717468738555908 0.532677412033081 0.124304860830307 0.3395818769931793 0.6854504942893982 0.1769600808620453 0.27950626611709595 0.08259300142526627 -0.399203360080719 0.18741951882839203 -0.3192496597766876 0.12728764116764069 -0.4538145065307617 -0.2254343181848526 -0.2155570685863495 0.2692332863807678 0.33327674865722656 0.06975239515304565 0.28623566031455994 0.2746448814868927 0.3762907385826111 -0.13776637613773346 0.033502113074064255 0.4774409830570221 -0.11732995510101318 -0.47697871923446655 0.050525862723588943 -0.10822823643684387 0.1455531120300293 
한 -0.11483458429574966 0.19741666316986084 0.34974250197410583 0.18374358117580414 -0.3103214502334595 -0.18597614765167236 0.39988264441490173 0.2667679190635681 -0.3155319094657898 -0.20847497880458832 0.35285672545433044 0.007723734714090824 0.6662553548812866 -0.14803870022296906 -0.029246022924780846 -0.15316110849380493 0.1390659362077713 0.30920958518981934 -0.40609854459762573 -0.38888147473335266 0.2727387845516205 0.30010753870010376 0.27998706698417664 -0.038241829723119736 -0.0014759632758796215 0.10949338227510452 0.023392345756292343 0.3221135139465332 -0.03307858109474182 -0.15990100800991058 0.14327800273895264 -0.1413065493106842 -0.06143774837255478 -0.0397275909781456 -0.08334645628929138 -0.1484009027481079 0.11199603229761124 -0.07075044512748718 0.35168585181236267 0.6432528495788574 -0.03234089910984039 0.04717404767870903 0.009304063394665718 -0.025911150500178337 1.1457000970840454 0.0601470023393631 0.03882043436169624 0.0851275697350502 0.6023270487785339 -0.4261481761932373 
서 -0.775077760219574 -0.09104583412408829 -0.8677351474761963 -0.2526378929615021 -0.22484458982944489 -0.9738408327102661 0.15689949691295624 -0.12354085594415665 -0.4071216881275177 0.209706649184227 -0.37350761890411377 -0.8814680576324463 -0.27943792939186096 0.19701352715492249 -0.10958714038133621 -0.0949915200471878 -0.1948014348745346 0.405745267868042 -0.48905542492866516 -0.48316463828086853 0.4645499885082245 1.0126043558120728 0.9066266417503357 -0.3657582402229309 0.016153061762452126 -0.23949728906154633 -0.27210789918899536 0.4571027457714081 -0.10469505935907364 -0.37212690711021423 -0.203578382730484 -0.2625757157802582 0.28546708822250366 0.10139781981706619 -0.12208685278892517 -0.19690966606140137 -0.008067319169640541 -0.29985180497169495 -0.24074871838092804 0.17343784868717194 0.5659103989601135 0.1449473649263382 -0.08997446298599243 0.2677621841430664 0.4558873772621155 -0.11283828318119049 -0.5218501687049866 -0.10987144708633423 0.3157767653465271 0.3436771035194397 
